#include "simple_network_coefficent.hpp"
using namespace dl;

namespace simple_network_coefficent
{
    const static __attribute__((aligned(16))) int16_t fused_gemm_0_filter_element[] = {
         15806,  10182,  -9681,   5253,  16566,  16517,  19211,   1911,  11680,  11435,  -7445,   6911,   5194,  12495,   1656,   7311,  17140,  -8652,   5612,   9235,  13020,  26374,  17433,   6981,   2849, -13127,  10931,  -8011,  12819,  18800,   9769, -13160,  13416,  10486, -13992,  12407,  13115,   -632,   1268, -12685,   2815,  -1296, -11514,  -3770,    360,  -3086,  13001,  10547,   -782,  10542,   6741,   3422, -12177,   9868,  -5474,  12681,  -2893,  18205,  14702,  13704,    237,  -3186,  18165,   2033,   8765,  -4647, -10810, -12559,  -1517,  11608, -13872,   1913,   6558,  13102,  -6567,  -3391,  -1558,   6442,  11906,  -7415,  -1471,  12055,  -3944,  -2709, -11587,   4709,   5810,     49,  11708,   -897,  -2256, -11290,  -4953,  -8717,  15331,  -7162,   -757,  -1512,   3129,  -2525,  18273,  -1788,  -5765,  -1640,  -3946,  -8199,  15774,  -6295,   4306,  -3417, -13157,  -7410, -11638,  15003,  11603,   1661,   5118,  14615,  17555,  -4756,  -9169,  -1388,  17155,   7623,  11656,   2418,  17905,   4018,  17165, -12540,   2751,   6684, -10284,    568,  14729,  16651,  15294, -10192,  15557,   7908,  -9965,  -6534,  13004,  18275,  -2160,  -8541,  -1548,   8977,   1339,  -3079, -12908, -11842,  -5681,  -7666,  -8974,   2983, -10628,  13981,   -510,  -5049,   8847,   7735,  15235,  15983,   8774,    341,  10343,   8788,    403,  10679,   8420,  13332,    226,  12683,  14430,   -624,  14335,  -1331,  12630, -11786,  -3222, -13256,  -1378,  20405,  13412,  16933,  -2183,  -1309,  12829,   7654,   5405,  -3632,  16972,  -2177,   6694,   7320,  -9414,  -5485,  -8570,   8421,    800,  -7749,   3202,   6492,  -1550,  -3042,  -6244,   4617,    312,   9418,    266,  -5219,   -820,  10712,  12006,    518, -10035,  14719,  18637,  -2819,   7455,  -1362,  13334,  12391,  12850,  -6090,  -9735,   8699,  -5021,  -3621,  16628, -15130,  -4104,  19783,   4769, -10058, -13395, -13905,   6183,   1371,   5703,  12865,   4948,  -8969,  10495,   1783, -12156,  11221,   6207,   3931,   8395, -12487,  13374,  -3425,  -3201,   8713};

    const static Filter<int16_t> fused_gemm_0_filter(fused_gemm_0_filter_element, -16, {1, 1, 2, 128}, {1, 1});
    const Filter<int16_t> *get_fused_gemm_0_filter()
    {
    	return &fused_gemm_0_filter;
    }

    const static __attribute__((aligned(16))) int16_t fused_gemm_0_bias_element[] = {
          1178,   1035,      0,    366,   2183,   1808,   1800,   2338,   1951,      0,   1312,   -436,   1501,   8584,   1650,   -679,   2229,   -697,      0,   1837,   1647,      0,   3348,   -631,      0,   1720,   4914,    950,   -177,   -233,   1846,   3679,   -174,   2215,      0,      0,      0,   1289,   -534,   -424,     37,   1751,      0,      0,      0,   -417,   1315,    -84,      0,      0,   1514,      0,   1464,      0,      0,      0,      0,   2755,   1433,   2078,   1511,   3859,   1273,   -549,   1462,      0,   1946,   1498,      0,   -283,   1723,   1576,      0,      0,      0,   2186,   -312,   2310,      0,      0,   2226,   1586,   1546,   1396,   1634,   1456,   1584,   2268,   1325,   2040,    808,      0,   2830,    -18,     25,   2733,   1632,      0,   1287,    914,      0,      0,      0,   1440,   -173,   1556,   1465,      0,   2157,   1768,   1514,   2523,   1836,   1999,    -40,   -588,      0,      0,   1457,   -260,   1442,   1578,   1567,      0,   6447,   -358,      0,   1336};

    const static Bias<int16_t> fused_gemm_0_bias(fused_gemm_0_bias_element, -14, {128,});
    const Bias<int16_t> *get_fused_gemm_0_bias()
    {
    	return &fused_gemm_0_bias;
    }

    const static Activation<int16_t> fused_gemm_0_activation(ReLU);
    const Activation<int16_t> *get_fused_gemm_0_activation()
    {
    	return &fused_gemm_0_activation;
    }

    const static __attribute__((aligned(16))) int16_t fused_gemm_1_filter_element[] = {
          6956,  -2342,   1754,   3236,  -5861,   2998,  -3686,   4262,    899,   6341,   1107,   -985,   2837,   3288,  -1164,   2286,   1516,   2030,   1186,  -2280,   1309,   2761,  -5604,  -4054,  -1106,  -3757,  -2885,  -4863,  -5381,   3061,   5358,    717,   6018,  -2712,  -4694,  -4092,   2330,   1921,  -3116,   2236,   6479,   8175,  -3912,   3750,  -2321,  -3006,     41,   1721,   1516,   5465,    557,   -183,   1204,    889,   4321,    416,   3891,   8667,  -4762,   1452,  -1171,  -5042,    299,  10325,   3221,   3406,  -2570,  -2965,   1354,  -4682,  -2710,  -1337,  -3628,  -2712,  -1034,  -1967,   4999,   1095,  -1797,  -5428,   1148,   -217,   4519,  -3072,   1478,  -2042,   4514,   7242,   4244,  -2528,   -254,  -5267,   1756,   2387,   2187,    137,  -3169,   7871,    251,   -113,  -4234,  -4535,   -248,   2634,  15981,  10009,   1136,  -2453,  -1794,   -230,   4738,  15325,  -3363,   2527,   5704,  -5333,    237,   -825,  -4139,   -184,  -3308,   3490,   2442,  -5435,   2620,   2387,   4026,   1278,   2959,   4658,   4957,   4830,  -1984,   -321,   3404,   3322,    719,   2049,  -5209,   1688,  -5576,  -4699,  -3247,    165,     83,  -5386,   4625,   2630,  -1425,   5649,  -5526,  -2540,  -2046,   3995,   1202,   3309,  -1176,  -5432,   -233,   4325,   7910,   5342,  -1770,  -5740,   3836,  -2442,  -1776,   2716,  -4170,   3722,  -3448,  -3175,  -3444,   1914,   2327,   -178,   6793,   1920,  -1761,  -3458,   3003,  -4837,    675,   8805,  -3182,  -2072,  -4304,  -2756,  -3432,   5475,   2980,    601,   1172,   2084,   2638,  -5391,  -4609,     11,  -3297,   3950,   7958,   8046,  -2677,  -1714,  -5644,  -1570,  -5699,   2524,  16459,  11509,  -4264,  -4363,    220,  -3551,  -4866,  12937,    788,  -1494,   3340,  -1890,  -2739,  -4661,  -5911,  -2202,   3315,   3140,  -1848,  -1657,     88,  -1739,  -1735,  -1296,  -1060,   3665,  -3939,   3339,   2868,   1925,   -921,  -3377,  -1948,   3806,  -1849,  -1666,    519,   2075,  -1324,   2993,   5823,  10286,   1448,    582,  -3794,  -5694,   4715,   3999,  -1602,   1843,    464,   4736,   2120,   1851,   -477,   -935,  -1470,   2417,  -5679,   4227,  -2572,  -1755,  -2147,   6439,  -2453,   2252,    562,   5711,  -5369,   1442,  -3397,    -61,   5385,   3632,   1939,  -2848,   4482,   1133,   1880,  -3701,  -1748,   4201,   1977,  -3454,   2992,  -1224,   2713,   2237,   -399,  -1321,   -675,  -2317,    892,   1982,   1306,    226,   4979,   6306,  -2817,  -1672,   2777,  -2950,   -678,  -3709,  -3117,     39,  -5070,  -4534,    710,  -1254,   -473,   -796,   -444,   4770,  -4076,   2188,   4377,   2193,   1442,   3572,   2421,   4365,   3410,  -5632,   2637,   5216,   5453,   2378,   3178,  -4270,   3265,  -1539,  -1643,   5234,  -3270,   1314,  -4674,   -577,  -1586,  -2092,   -481,   -377,  -4846,    823,   2737,   4469,   2818,   5722,   4198,  -2284,  -4895,   4154,  -2909,   3038,   1846,  -1070,   -924,   -933,   5185,  -3501,   5350,   7855,   1523,  -5612,  -2486,  -1894,   4177,    142,   2942,  -2421,   2981,   4684,   5398,   4052,   3694,    665,   1538,  -3377,  -4904,   -405,   2864,  -2837,  -3336,   -449,   1346,   1362,  -4823,   3711,  -2504,   4028,   1975,    575,   7203,   2317,    851,  -1638,   4083,  -4210,  -3351,   1879,   5601,  -1974,   3730,  -1862,    973,  -1116,   3905,   5775,    603,    124,  -3456,   -341,  -3397,   1110,   5118,   4253,   4429,   2524,   2553,  -4244,   1346,   2491,   -425,   4860,   5474,  -3867,   1861,   2605,    525,   1724,   1589,   1941,   -659,  -4789,   3868,   1872,  -4365,  -4534,    550,     12,  -5284,  -5607,   -769,  -5724,   1663,    802,  -2357,   3778,   7621,   4765,  -1540,   1738,   5051,    830,   3226,   2955,   2146,   1128,   3089,  -2041,   1848,  -4395,  -4606,   4785,   1410,    110,  -4963,  -2979,  -1952,  -2525,   1388,    926,   4153,   6730,  -5417,  -1124,  -3212,  -5174,  -4220,   5477,   7241,  10080,  -4829,  -4162,  -1259,    -27,   2740,    625,   7154,   4524,  -2262,   -802,  -5100,   -890,   4088,   4720,   4288,  -3755,   5616,  -4991,  -5970,   1905,  -3937,  -4067,
          6617,   2209,  -4298,    319,   2410,  -3837,   3623,   1183,  -3692,   4090,  -1318,   2375,   2991,  -3766,  -2619,  -4163,    199,   6269,  -5385,  -3899,   5149,  -4501,   -336,  -1622,   7085,   8044,   -809,   2133,   3855,   -587,   2854,   2269,  -1532,   4503,   -320,  -3194,  -2746,   1407,   1842,  -2877,   2760,  -2753,   5454,   2318,  -1610,  -3553,  -5830,  -2941,   -572,  -2468,   4326,   3854,  -1479,     89,  -3711,   3141,  -1621,    341,  -2715,  -5028,  -3014,  -3192,   -749,   2616,   5480,   1197,  -4765,  -2678,   -820,   1629,  -4427,   3416,   2675,   5526,  -2648,    214,   2075,   -681,   1017,  -3792,  -4786,   3558,   4542,  -1178,  -3988,  -5305,  -2528,   5658,   2608,   7329,   2858,   2401,  -4767,  -1143,   3489,   3950,  -4535,  -3721,    961,   4267,  -1017,  -3610,   1058,  -1817,   8571,   7604,  -3411,   2882,   2148,  -3192,    162,   1399,   5189,   3391,  -4516,   5405,   4711,  -1859,   3800,   1936,  -5208,    711,   1576,  -1087,  -3928,   4520,  -3832,     23,   9038,   7912,   4799,   -680,  -1391,  -1860,  -3887,   7229,   6484,    982,   1497,   3443,   4403,   2346,   3827,  -2378,  -2272,   6960,   1502,  -3549,    197,     -1,  -2820,   1247,   5379,   1955,  -5333,  -5460,  -3172,  -1601,   -710,   1535,   9182,   4503,    338,  -4007,   1487,  -3337,  -3467,   6123,  -1754,  -1118,    272,   -721,  -5406,  -5635,  -4734,   5886,   1036,   3403,   3305,  -1557,    266,   2958,  -1353,   2731,   3883,   -550,   2330,   4837,  -5342,  -5788,  -1579,   8950,    164,   3506,  -4818,   5402,   4911,  -5153,    -53,   -114,   3319,   2896,   3419,  -5534,   5361,  -2473,  -4431,   2443,  -2891,   7116,   4695,  -2850,  -3270,  -3990,  -4311,   5398,   1930,   3646,  -1879,  -3987,  -5259,   5299,   1409,   -394,   4106,   9711,  -2338,   1570,   3432,   5127,   4887,  10053,   6878,   2788,   1396,  -4489,  -4059,   2821,   -526,  -1999,  -2190,  -2534,   -920,  -1006,   2957,   1770,    -98,   1984,   3374,   8415,  -1292,   4906,  -4136,  -1620,  -5111,   1157,  -1358,   5040,  -5396,   -801,  -5316,  -2898,   -972,  -1071,  -3952,   4575,    770,   1137,  -2505,   4457,  -2120,  -5351,   2193,  -2837,   2402,   4301,   3603,    638,   2461,   4308,  -2634,   -564,  -5326,   2450,   2023,  -3034,  -4851,   6113,   4319,  -3435,   3531,   1428,   4699,  -1237,  -5161,   2090,  -3142,    702,  -5620,  -4633,    843,  -2298,  -1638,   1781,  -5570,   1868,   2168,   -214,   4374,   5493,   4557,  -2012,   1891,   7141,   5656,   3432,  -3182,  -1426,   5332,   4965,  -4440,    573,   5161,   4343,   3189,  -4948,   2272,   2883,   -207,  -1132,   3684,   2865,    -42,  -1471,   5233,   5369,   4829,   2156,  -3982,   -846,   -374,  -2443,  -3240,   4546,  -4026,  -1862,   3672,    718,  -3373,  -4172,   -690,   5685,   8248,   5196,  -1385,   5523,    567,   -603,  -1059,  10663,   4992,   6547,  -4811,   1464,  -1324,  -3860,   4704,    343,   6221,  -2829,  -3069,  -2161,  -1086,   4260,   2956,  -1180,   9048,   4450,   2571,  -5778,    207,   2834,  -3153,   5827,    142,   7299,  -2673,   3534,  -4898,   4963,  -2996,   2746,  -2217,   4958,  -3338,   4807,  -1850,   -395,   3397,   3090,     78,  -3428,   2894,   3359,   2590,  -3286,   4192,  -2451,    479,  -2599,  -5052,    -69,   1590,   1370,   1929,    -44,    -77,   1762,  -3638,   2631,   3325,    420,    106,   1898,   1585,  -2231,  -3875,   5401,   -407,  -1876,  -3284,   2752,   1577,  -2262,  -1597,  -1431,   5264,  -1231,  -4699,   6008,  -2600,   5879,  -2365,  -4141,   5489,  -3118,   3170,   3295,   7469,   4034,  -5060,   2817,   1092,   4460,  -5929,   7975,   1707,   1678,   -190,   1851,   2219,  -4777,  -3949,   3365,   4018,   4872,   2150,   1392,   5276,   4086,  -3427,     74,  -1579,   1730,  -1341,  -1429,   -396,   1012,   -335,      8,   2820,   3287,  -2303,   4493,   1526,  -1840,  -3414,   3987,  -2412,  -3675,   4937,   -175,   3211,  -1424,  -3174,   3445,   5766,   -445,   1561,    -62,   2061,   5310,  -4458,  -5014,   6497,   -797,  -5483,   5762,   1901,   -295,  -3105,   2544,
          3404,   1667,  -4228,   3544,   2717,  -1285,   6894,   -735,  -5398,   5071,  -5738,  -3846,   4301,  -5385,  -1502,   2333,  -4383,  -3226,  -2862,  -1287,  -4271,   5604,   5729,   5240,   5036,   3246,   1166,    355,   2257,   3878,   6014,  -2251,   2980,  -1987,  -2549,  -1135,    650,     -7,  -1426,   1473,   2745,  -2652,  -5557,  -1831,   7886,   4327,   7507,    583,  -5360,   6286,    561,   4475,  -2423,  -5535,   -358,  -3110,   1414,   4818,  -4120,   7773,   8943,   2629,   6698,  -1647,   1255,   5690,  -5823,   1137,   7420,  -5259,   2766,  -4900,  -2816,  -4537,     43,   1392,  -2082,  -1235,  -3521,  -4490,   2986,   7081,    426,   6188,  -1883,   4128,    763,  -2998,  -5367,   4079,  -5306,   5785,  -3236,  -4108,  -1799,     -1,  -3021,  -1619,  -5127,   6322,   4425,   2971,   7288,    509,   4019,   8341,   2439,   5059,  13601,   2463,  19939,   1140,  -5625,   -286,   2325,   -822,    521,  -4998,   3913,  -5872,   -498,   -534,   2698,   4918,  -1242,  -2298,  -2033,    653,   2903,   1217,   3782,   4985,   2589,  -4262,   8690,   3554,   4593,  -4096,   2097,   2030,  -4395,   1050,   6058,  -6071,     93,   -876,   5382,    116,  -1137,  -1428,  -3258,   5143,   4752,   3266,    481,   7701,   1806,  -5059,   9173,   4478,   2167,   3375,  -2124,   6200,   -554,   -805,   5503,  -4180,   3844,  -4086,   5065,    457,   5286,   4198,   4968,   1961,   2205,   1456,   4816,   6176,   1008,  -1447,  12169,  -1119,   4787,  -2916,   1119,   -773,   5458,   1014,  -1298,   3497,    607,   5475,   5027,   4187,   2880,  -5687,  -3392,   3399,  -4387,   7228,   3724,    399,    837,  -5133,   4388,   1291,  -5040,  11994,  -2558,  11786,   9072,  -5302,  11040,  -1133,  -1355,   7037,  -1691,  -3347,   2738,    979,  -1258,  -2686,   4078,   5086,   4079,   1815,   3538,    675,   -375,  -4917,  -5853,   6616,   3565,  -2907,   4514,   -244,   -223,   4379,  -3357,  -2611,  -1204,   1441,   7923,   4804,   -326,   2301,    689,   5000,  -1353,   6602,   3235,   1660,   8599,   2211,  -4853,  -3395,  -6254,   4519,   -263,  -4153,   6374,    165,  -2187,   5216,  -1435,   -629,   8509,   2041,   9036,  -6288,  -1727,  -1028,   -538,  -4873,   5520,   3729,  -3460,   3755,   3442,  -3284,   -165,    673,  -1438,    400,   4368,  -2452,   -434,  -5714,  -5780,  -3806,  -4193,  -1547,   4972,  -2753,      4,   3834,   3412,   7790,   4900,  -3941,   -978,   1032,   2782,   2552,   2347,   -460,  -3161,   5257,  -1341,   4166,  -5324,   1507,   4796,    740,  -4406,  -5778,  -3282,   3110,    181,   4643,   4241,  -2312,   2020,  -1780,   3398,   2875,   3157,   1231,  -1041,   -187,  -1249,   4621,    882,   2518,   3307,    787,  -5787,  -4241,   2632,   4780,   1576,  -5089,    226,  -3334,   1030,  -2651,   5366,   -662,  -2075,   4546,  -5542,  -1056,   -834,  -4960,   -395,   4391,  -2908,   -609,  -4353,   4227,   3359,  -4380,   3448,   5323,     35,  -2391,  -2565,  -3040,  -2573,   7194,   2402,  -4819,   5438,  -3556,  -4817,  -2477,   1541,  -4597,   3484,  -4574,  -1173,   5010,  -4868,   4316,   4585,   4485,  -1010,  -2086,   1904,    -99,  -5523,   5695,  -3798,   5072,  -5548,   4326,  -1792,  -4352,  -3344,   7617,  -4267,   6246,  -3379,   3501,   4793,   3677,  -3455,  -4527,  -4388,   4715,  -3271,   1139,   1011,   4283,   -899,   3419,  -3312,   7449,  -2924,  -1346,    612,   3072,   4433,  -3314,   3449,   5232,  -3125,   4686,   1305,   3908,   4784,  -3995,   4398,  -3336,   -342,   -235,  -2903,    842,   4342,  -2655,   1588,   4080,     -4,   2791,   -288,  -1316,   1424,   4343,  -5099,    898,  -1193,    477,   4176,  -3228,  -1930,   8463,  -3364,   4810,   8174,  -2271,   2631,   4130,   2027,    869,    946,   6784,   5495,  -1552,   8121,    500,   4228,    -56,  -6035,   6114,   1480,    261,   6734,    193,    920,   8561,  -3300,   4342,  -3064,   -359,   4365,   4220,  -4277,   4512,  -1893,   -222,   6140,   -775,   3179,  -5200,    349,   6191,   1480,   -549,  -2793,   -172,   5366,  -3949,  -4687,   3271,   3315,  -2215,  -1101,  -3681,  -3711,  -6180,
         -3632,   2774,   -662,   2464,   1395,  -2749,  -1388,   4253,   3861,  -5161,    702,  -3944,  -2332,   1631,  -4203,   4926,    -84,   6342,   4461,   7192,   2342,     22,  -1508,   4682,  -2655,   6832,  -1487,  -1357,   5293,  -2126,   7117,  -1586,  -4077,   5768,  -3165,  -2921,   -275,  -5724,  -4319,  -2717,   2941,  -3287,   1071,  -1596,   -427,   1570,   -337,  -5572,  -1629,   3701,    -41,    299,   6651,    453,    164,  -4935,  -3553,   3175,    543,   7510,   3578,   2529,   1921,    601,   5248,   -605,   -133,   1772,  -5209,  -3622,   -642,   3678,  -2037,   -740,   5394,  -2303,  -1350,  -5344,  -1830,   4984,   1411,  -1967,   1612,  -4501,  -2977,   3924,  -2198,  -2491,   4238,   2696,  -1422,   3439,   7909,  -5545,    813,  -2276,  -2897,   -611,   1212,   1694,   3144,   -917,  -3207,   1310,   4117,   2223,  -1596,   1486,   2577,  -5004,   4771,  -2243,  -1574,  -1570,   -240,   3021,   2864,   5739,  -4156,   -912,   -150,   1858,  -1957,  -4599,   1074,   1892,  -2656,   4965,   4482,    221,   -528,   7901,   6811,   2237,   9497,   3929,  -5820,   3402,   5128,   2970,   3650,    365,   1345,    933,  -2230,   7333,  -5395,   4996,   6256,   1755,  -1284,    730,  -2849,   4801,   4841,   6383,   7634,    492,    826,  -1286,  -3288,   3836,   -916,   5089,   3277,   2291,   3392,   4467,  -3854,   5860,   3069,   5393,   7361,  -1831,   2695,   2116,   -657,   1902,   -900,  -1119,  -2435,   5640,     68,   4759,   2670,   6298,  -1001,   7129,   8735,  -1726,   3912,  -2466,   2969,   3093,   2899,   7269,   6417,  -2719,   8542,   1707,  -3847,   3086,  -1367,   1088,   5321,  -2792,   1783,  -1690,  -1793,   7197,  -1105,  -1940,    461,  -4162,   2201,  -3419,   4330,  -2795,  -5628,  -3656,   3399,   3363,  -3071,   4468,  -3198,   5331,   1437,   1069,   3638,    350,   5107,   2020,  -5384,   6269,  -1416,  -4428,    379,  -5504,  -3431,  -4390,   -966,   5370,    919,   4935,  -3227,   4910,   3417,   4761,   5107,   4124,   4725,  -1625,   6801,   2663,    166,  -2159,  -5129,   6364,  -4738,   6098,   4760,  -3301,   9149,  -3621,   2647,  -1060,   2993,   1204,   2914,  -1664,  -5734,   4830,   -378,   5993,  -6018,   2756,  -1034,   -384,   -176,   4551,  -3859,  -3302,   2947,  -2052,   1937,   3189,   8612,  -3236,   5378,   5156,   4967,   4573,  -5242,   3231,  -4310,   3862,  -1422,   1755,   3879,   5231,   3897,   1676,   2497,   3608,   2431,  -4200,   5036,    801,  -4963,  -5470,  -2607,   5532,   2608,   8558,   2680,   5829,   6787,   1816,   2207,  -5559,   2994,  -1810,  -3741,  -4826,   5985,   4413,   2159,   4246,   3560,    -66,   2668,   5353,   4494,   1674,   2523,   3780,   1180,   4411,   3107,   1565,   3952,   2262,   8349,  -1412,   -911,   1786,  -3211,   1870,  -3925,   3528,   5045,   1442,  -3993,    739,  -3680,   4811,   9646,    224,   4332,  -2439,   -505,   8959,  -3867,   -285,   5472,  -3541,   4831,   4032,    478,   3895,   4333,   1535,  -3171,  -2725,   8311,   1370,   2877,  -1363,  -3233,  -2266,   1565,   2064,   1453,  -5257,   5448,   6157,   3205,   8246,   1702,   4891,   2251,  -1892,   4789,   7908,  -2661,   6788,   3420,  -5389,   1360,  -6076,  -5489,   3349,  -1391,  -4407,   -258,   3455,   3138,   3481,  -1755,  -4095,  -4490,   -395,   3282,  -4989,   1715,  -3431,   1201,  -4835,  -2150,   5151,    748,   4308,   4248,    220,  -1108,  -2993,  -2370,   -992,  -5011,    736,    848,  -5023,  -5493,    985,  -1093,   5433,   3778,   4621,   5856,    839,    383,   1738,  -1263,  -4651,  -4268,   3320,   1012,  -3898,  -4192,   4854,    503,  -1468,   3310,  -2998,  -1692,  -3516,   5296,   7597,  -3552,   5213,   3352,  -5107,  -1976,    743,  -4593,   6263,  -5353,   -641,   3960,   3271,   2867,  -1818,    332,   2392,    457,  -1824,    276,   2604,   -393,   3991,   1678,   2599,  -4816,   7934,   7994,  -5636,  13599,    822,   1607,   3444,  -2590,   1177,   1818,  -2048,   1020,    900,  -1676,   2858,  -2563,   5428,  -1345,   4654,  -3076,  -5766,   -307,  -3038,  -1152,   4223,   6435,   1142,   5489,  -4850,
         -3511,   3550,   2662,  -2735,   7759,  -1140,   -215,   -412,  -1027,  -4831,    794,  -2331,   4980,   6022,   1989,   8348,  -4950,  -3121,  -5352,   5514,  -1712,   3689,   4265,   4401,   4743,  -5475,  -5066,  -4595,   4361,  -1082,   4233,  -3087,  -5573,   1999,    234,  -5255,  15178,   2605,  -4438,   7579,   1465,  -3142,  -5453,   2491,  14239,    432,    -88,   2804,   4734,  -3361,  -1237,   -344,  14917,   4952,   1390,  -1870,  -3405,   2568,   -671,     40,  11687,   1526,   -844,   3301,   2114,  -2579,   -343,   1123,  16425,  -2586,  -3420,   1907,   2034,  -3046,  -5673,   4886,   1337,    610,   2730,  -1990,    727,   1862,  -3040,  -3722,   9531,    127,  -4877,  -2006,    228,    597,  -5228,   2782,   2960,  -2176,  -4070,   4794,   -186,  -1457,  -2871,   1223,   7825,  -2660,   2406,   -297,  -1836,   3684,  -1073,   2626,  31846,   8578,  -5683,  13848,   1756,  -2958,   4695,   -568,   8872,   5026,   1736,   5027,  -2163,     -7,   -756,   1111,   4051,  -3673,  -2256,   4929,  -3536,   1167,   2685,   2925,  15668,   -447,   -975,  -1206,  -3429,   -169,   -549,   4676,  -3438,  -3926,   5552,   7290,  -4960,   5111,  -1615,   3413,  -3817,   -666,   -213,    882,   4593,   4477,  -5532,  -1651,  12090,   4981,   -327,   4453,   4258,    301,   1474,   -296,  11045,    964,  -1332,    806,   -788,   1414,  -4462,   -755,   1097,   5509,  -2136,   4382,   -622,  -4886,  -1799,    753,  15692,   6602,  -2417,  11630,   -995,   -613,    821,  -2032,   5674,  -4242,  -2530,   6666,   3381,   5677,   3219,    925,   1113,   4562,  -2631,   3409,   -796,   1173,  -3456,  -4206,   8201,  -3359,  -1299,    461,   2539,  -5286,   2248,    363,  25277,   6400,  -2471,  14088,   1649,  -2196,  -5443,  -5306,  14674,   1620,  -5215,   3029,  -1068,  -3529,  -2930,   3142,   -553,  -5242,  -5153,   2713,   1342,    695,   -678,  -1295,   3047,  -1886,  -4726,   -755,  -1777,  -1726,   3735,  -2764,   7428,   4284,  -4851,   7102,  -3793,    817,   5093,  -5582,  14268,   1584,   -205,   6728,   1389,   5087,    624,  -1137,   2743,    156,  -4926,   -106,   -973,  -1825,   3399,   -746,  16837,   8112,   -932,   5196,  -5732,   2566,  -2805,   1471,   4551,   -226,  -1932,  -2349,   5737,   4228,   -668,   -472,  -1053,  -3651,   1285,   2527,   4744,   5339,   2394,   3733,   2147,   5769,   2400,    925,  -5430,   3491,   4300,   2252,   6397,   8015,    538,    436,   1164,   3140,   2208,   2672,   5803,  -2002,   1434,    935,   5070,  -3851,  -2944,   2075,    376,   5801,   2219,   4023,  -1813,  -4590,  -5080,   4600,    980,    -32,  -5107,   7113,  -2862,   3300,    504,    556,  11905,   6719,  -5491,   8881,   4558,  -4890,  -3412,   1582,   4356,   5336,  -1304,   5204,   1127,   -975,  -3201,  -2996,  -2682,  -5556,   1433,   3548,  -5099,  -5043,   -483,  -1446,  -4052,   -556,  -5119,   3481,  -3391,   2940,  -3335,  -3371,   3420,   1366,  -5442,   -299,   3265,   2068,   1427,  -1084,   9189,   5140,   1675,   8678,  -1891,   5068,   4295,   -213,   -267,   5581,  -3624,  -1298,   3175,  -1801,  -5612,   3992,  -5067,  -1418,   4740,   -890,  -1745,   1514,    966,   -840,   4725,  -2547,  -3501,  -4764,  -5851,  -3655,    631,  -2387,  12654,    266,   5036,   1053,    396,   4490,   2761,   4589,  -2767,   3771,   4805,  -3377,  -2249,   3221,  -5364,    932,   8209,   2418,  -1773,   6858,   5612,  -5691,  -5131,   3084,   2141,  -4118,  -2097,  -1292,   4581,    251,  -4005,    633,   3741,   4174,  -5538,   2491,   1821,   1465,  -3387,   4233,  -2952,   3808,   4967,    274,  -3412,   1364,    701,  -2208,   -872,  -4033,  -4113,   3802,  -1684,   4933,   3968,   -985,  12447,   1668,  -2138,   2771,   -162,  -5519,  -2288,   3579,   7244,   6014,  -3132,   7856,   3155,   4269,   -603,   5561,  18057,   3876,   4709,    612,  -3343,   2516,    -82,  -5447,  10291,   3868,  -4575,   3938,   5103,   -998,  -4897,   1704,  13947,   -366,   4697,   6463,   4797,   1981,  -4709,   -343,   7955,   1065,    189,   8092,   2731,  -1868,  -2812,   -426,    707,  -3157,  -2091,  -3200,
         -3073,  -1742,   5163,   1062,  17334,   -390,  -3461,    585,   5187,  -5284,  -5690,   2897,  -4988,   5690,   4751,   1503,  -4538,    206,   -396,  -3231,  15215,   3154,    471,   6192,  -5352,  -1442,   5125,   -123,  12986,   7970,  -3623,   7839,   4182,   5360,  -5172,  -5329,  -2182,  -1318,   4647,   4403,  -1203,  -3405,    382,  -1872,   3240,   5923,   2047,  -3815,   5482,  -2673,   -815,   1668,   8848,    602,  -5623,   8379,  -3842,  -1127,  -1716,  -2566,  13237,   6935,  -5591,   2768,   -510,   5176,  -3152,   2870,   4160,  -4590,  -5384,   1146,  -5025,  -5320,  -3381,  -1933,   4949,   2642,  -3927,   3405,   4199,  -3769,  -2994,    447,   2539,     51,   3683,   3478,  -2759,    424,  -2695,  -4833,  18686,   -699,   3589,   6465,  -3520,    321,   1631,   3267,   3254,   4661,  -1687,   2777,  -1624,    426,  -3107,  -4837,  15486,    451,   5259,   -499,   -651,  -1311,    820,   -486,  -5129,  -3466,  -3957,  -1917,   1036,  -1319,   5394,  -4979,  -2082,   4636,  -2240,  -2759,   1928,  -2832,  -4958,  -1396,  18315,   2286,  -5670,   3350,  -2018,  -2574,  -4608,  -3421,  17642,   7749,  -2711,   3992,  -5109,   1887,  -4515,   2944,  18117,    575,  -5054,   5815,   2357,   -563,  -3580,  -4061,  14371,   3026,   4613,  -2021,   3651,   2130,   4553,  -3951,  11210,   7863,  -3098,   2554,   1129,  -2568,  -2991,  -5295,  13201,   8307,  -3452,  -1830,   3176,   2646,  -2143,   -335,  10723,   5834,  -2294,   -370,   5297,   2287,  -1202,   1001,  12308,    134,  -1027,   3150,  -3940,  -4450,  -4657,  -2833,  10280,   7240,  -3433,   5121,   5448,  -3232,  -2488,  -3709,   9657,   3950,   2501,   -574,  -4487,   -315,  -1719,  -1783,   3652,  -3494,   4202,   2026,  -2664,  -1109,  -3503,  -4098,  -3453,   4029,    604,  -5008,  -3997,   1132,   5264,  -4433,  16120,  10023,  -3254,   8813,  -2161,   2553,    400,  -1304,  -4602,  -4507,   3955,  -2242,   2901,  -4318,   4689,  -1642,   6417,   6541,   2973,   4871,    977,    634,   4912,   -160,  20919,    395,   1645,   2514,  -3699,    179,   2874,  -1438,   9023,    600,    475,   2813,   4553,  -4684,  -5104,  -2422,   4800,   2393,   5101,  -2973,  -3499,   2953,  -2303,    594,  11167,    390,   5489,   5351,   -622,  -5596,   5029,   1822,   3212,   -854,    722,   7539,  -1378,   4506,   4079,  -2830,   3738,   3258,   4920,  -4319,   1848,  -4401,  -4868,   2238,  -3157,    432,  -5379,  -3776,   3936,   2859,  -5607,  -2905,   5068,   3826,   2699,  -1073,   4701,   5124,   5703,   -881,   5880,   -296,   2396,   5608,    -52,   3147,   2661,  -5312,   2756,  -5521,  -1118,  -2947,  -4510,  -4147,   2908,   4567,  11348,    688,   1199,   5633,   3967,   1760,   2070,   4409,   9823,   5498,  -3499,   3855,  -2809,   2889,  -2120,   4385,  -3914,   -484,   3126,   2699,  -1673,   4438,   3146,    793,  14967,   5564,   5400,  10085,   2480,  -4167,   4722,  -4136,  15252,    793,  -4001,   5223,  -4312,  -1696,  -5358,  -1881,  11746,   6660,   4758,  -2741,   5045,   3052,   1632,  -3522,  14019,   3450,   5543,   2085,   2237,   1053,  -3876,  -5351,  11839,   8451,   5526,   5102,  -1139,   1770,  -3749,   -902,   8067,   6713,  -2226,   4010,  -4125,   2595,    808,   5649,    806,  -3588,   3031,   3734,   1852,  -2847,  -1260,   1693,   3708,  -2943,   -275,   6256,   1392,   2585,  -2907,  -4838,  -4086,  -5477,   2439,  -1304,   1519,  -5761,   5544,   2188,  -1257,  -3708,     91,   5030,   5571,   -173,  -1189,   1178,  10040,   5862,  -5072,   -557,   -707,   5736,   4609,    718,   4128,   4605,   5013,   1990,   1669,   -562,  -2435,  -2711,  14458,   5623,  -1316,   3443,  -3818,  -2454,  -4847,  -2057,   7895,   3226,   5572,   3138,   -989,   4709,  -2610,  -4848,  16458,   5269,  -1397,   -387,  -1921,  -3222,  -4817,   4303,  -1239,   3346,    973,  -2932,    567,    641,  -3030,    867,  28374,   3392,  -2094,  13487,    604,   -641,  -2248,   4711,   4877,   -510,  -4987,  -2245,   5678,   5602,   5199,   -691,   2927,   3907,   2245,   1869,   -326,  -5938,   1843,  -3325,  12445,   7135,   2723,   5645,
         -3954,   -388,   5728,  -5012,   4203,  -4354,  -1375,   1130,  -5743,  -1973,   6591,  -3340,  -4287,   5079,   7745,  -2766,  -1509,  -2054,  -1475,   4729,  -4734,   5019,   3094,    288,   -343,   3521,   2137,  -1981,   5164,     59,    176,  -2858,  -4099,  -1395,   5715,  -2289,  -2515,  -5396,   7348,  -3128,     98,   3000,   1384,    203,  -4345,   -162,   4486,   -363,  -5095,  -4907,   6069,  -2658,   2522,   1245,  -1069,   4320,    889,  -2384,   1479,  -1609,  -4413,  -5560,   9067,   7077,   5099,   3634,   8983,  -2338,   1732,   -772,   8128,   1257,   2052,  -4878,   5299,  -3615,  -1757,   -320,  -5744,   4720,  -3195,  -4749,   3079,   1318,  -4761,  -2273,   2357,   5037,   2310,  -3691,   5925,   1422,  -3373,   3567,   6113,     56,    -53,   3080,   3902,   4752,  -1219,    395,   2617,   3660,     50,  -2433,  12379,   3991,   4566,  -5818,  20293,  15437,   1750,  -1335,   1311,   -547,  -3646,  -2375,  -1286,   2818,   1055,    686,  -2553,   3849,   5282,  -1959,   3236,  -3349,  -1235,  -3572,   3698,   5140,   1031,   -102,   1595,  -1012,   2749,   4581,   -938,  -1232,   -412,   5107,  -3443,  -2525,   2285,   2888,   3423,   2810,   2470,   2108,   4485,  -4831,  -5124,    -99,   8831,   1726,   3773,  -5552,   9538,  -1224,    483,  -3021,   -148,  -4574,  -5400,  -5783,    532,   4377,  -1753,  -4725,  -1242,  -4550,  -1269,    777,   3417,  -3017,  -2673,    358,  12242,   -740,    794,  -1713,  12296,   9998,  -1791,   4380,   5109,   -436,  -5666,  -5846,   -174,  -1253,   4770,   5234,   1795,    773,  -5576,  -2832,   3209,  -3355,  -5760,   -533,  -2629,   2362,  -4037,   4468,  -1239,   -420,   -520,  -3727,  11290,  -4366,  -3433,  -4639,  13634,  13087,  -1889,   4796,   2896,   1628,   2087,   4971,   4979,   5536,  -4608,  -5526,    196,   5114,   2692,   3639,  -2874,  -2816,   1108,   1386,   5061,    401,  -2178,  -3714,   6162,   1434,    538,  -2771,    116,   5189,  -5526,   3917,   8046,   3455,     -5,  -6174,   8155,  -3926,  -4164,  -1661,   4607,   2687,  -5297,  -4306,   3091,   -568,   5477,  -4073,   2549,   2991,  -1156,  -2756,   7415,  -2244,  -1514,    705,   8818,   5812,    -55,   2037,   2834,    706,  -2753,   -446,   -712,   -920,   5515,   4988,  -5031,   3665,    114,    883,    874,   1183,  -3980,  -4557,   -669,  -2334,   -150,   1408,   5650,  -4928,  -3681,  -6186,   1829,   -692,   4264,  -2282,   -695,   7686,   2244,   4771,   5688,   2412,  -5700,    403,  -2755,  -4061,   4461,   2327,  -4381,  -4277,   5258,  -2378,  -4210,    523,   -720,   -337,    311,   4304,   5242,    109,   2404,  -3180,  -3607,   3428,   7892,  -5127,  -5073,  -2922,   1771,   7171,  -2426,   3886,  -2118,   1830,   3464,   -588,  -2169,    369,   -418,   4787,   1579,  -1634,   2787,   2268,  -5238,  -4248,   1102,   1182,   5605,   -989,   3567,   3101,   5265,  -4973,   2772,   3558,  -1571,  -3433,   3207,    880,   7049,   2568,  -3605,   2606,    457,   4445,    -47,   3650,   6768,   5756,  -3953,   5478,   4236,  -5636,  -5724,  -4348,  -5181,   3232,  -5242,  -4651,  -3242,  -2426,  -3875,   2047,   3645,   -248,  -2891,   -105,  -2235,   -129,    761,    497,  -1235,   1493,  -5303,   3379,  -2469,   1137,    647,   -243,  -2312,  -2627,  -2508,   2719,    239,    253,    823,    953,  -4871,   1580,    812,   4320,  -1600,   3757,  -2382,   -145,   1262,   4378,  -1478,  -4529,   3437,   4514,   4091,   5552,  -3976,  -3240,  -2534,   -678,   1711,  -1723,  -5395,  -5553,   1580,   1495,   -394,   5222,  -1390,  -5546,  -2932,  -4379,  -3896,   4945,  -3944,   3885,   4642,   2415,   4694,  -1842,   5522,   1073,  -5590,  -2227,   7696,  -2129,  -4837,   3846,   6771,  -1066,  -1162,  -1277,   -366,  -4201,     88,   -552,   1341,   4723,   4622,  -4794,   7956,   2667,   1977,  -1397,   1290,   1401,  -4881,  -3448,   4629,   2459,   5577,   -352,   5815,  -1690,  -4324,  -3500,   4679,  -4715,   3040,   3673,   6626,   8981,   2682,    535,  -1546,   -674,  -4204,   3661,   3083,   3422,   2464,  -1002,    231,   3712,   5128,  -3372,   5905,  -1290,
         -1378,  -1242,   4341,  -5829,   -162,     15,   6778,   1575,  -5009,   2688,   -580,  -4244,  -2066,  -4492,   -242,    -24,  -1344,  -5858,   5571,   5123,  -5736,   5232,   3809,   2799,   -786,   1637,   4386,  -1295,  -1624,   1239,   -481,   -956,  -4211,  -1774,   -822,   5177,   1734,  -3849,  -2209,  -4205,   3171,    577,  -1483,   3771,  -5055,    770,  -5582,  -4621,  -5448,  -6225,    427,   2847,  -2302,   -685,   6519,   3335,  -1334,  -2218,   4893,  -4298,   4296,  -4526,  -2595,  -2001,   4390,  -5629,   1285,   4007,   5339,  -2885,  -4221,  -3778,   3567,  -4736,   1701,  -1489,  -2608,   3386,  -3500,  -5127,    156,    334,  -2025,   4309,   4222,  -4078,  -1106,   2083,   1443,   1916,   7486,   2071,   -613,  -4736,   8513,   6085,  -1800,  -5919,     -4,  -4363,  -1431,    748,  -3827,    359,   2979,   2567,   3244,  -3281,   1864,  -5312,   8221,   4132,  -3697,    -60,   4004,   4113,    769,   4123,  -3602,  -4805,   -202,  -1086,   4031,  -4698,   2339,   1633,  -3158,   3260,   1755,   5038,   3109,  -1156,   2269,  -2643,   2162,   1142,   4071,   4077,   6856,  -2951,  -1985,  -2412,   9561,   6438,    812,   -106,   1321,  -1342,  -3521,   4695,     96,   -722,    767,   -467,  -2329,  -3684,   2545,  -3503,   6169,   4834,   3018,  -1999,   -531,   3220,  -2196,   -588,   -125,   6268,   1386,    106,   2572,   4824,   2482,  -3351,   8451,  -2462,   2099,  -2318,   6181,   2927,   2983,  -1599,   6040,   3180,  -2978,   1866,   6132,   2266,   4561,    216,   7383,   7024,   4468,  -3978,   2122,  -5964,  -4093,  -3820,   1280,   1714,  -2568,   4809,  -2220,  -4779,    136,  -2135,  -1985,   5985,   3762,  -4577,   1029,   2538,   1464,   3910,   7330,   -425,    496,   1194,   3497,   1495,  -4641,  -2017,    159,   -871,   4478,   2956,    791,  -5795,   4240,   1281,   6789,    119,  -3043,  -4200,   -143,   4888,   3591,   5189,   -636,   2668,  -5717,  -1843,  -3382,   4620,   4153,   4230,  -2651,  -1463,   4016,   4820,   6096,   3180,  -1332,   -770,   5973,    220,   4188,   4109,   2055,    -41,   1511,  -4122,    805,   7504,   2303,  -1670,  -5644,   2842,   5128,   -982,  -4921,   1169,  -1662,   -119,   2261,    187,  -5373,   2444,   1389,   8124,   -391,    282,   5416,    798,   3327,    914,   6656,   7044,   4548,  -5340,   4178,  -4779,  -5054,  -5333,  -5087,   1167,    648,  -1714,   3153,  -1857,  -1013,  -4258,   3359,   3055,  -3357,  -2130,  -1442,   1960,  -2631,   1275,    784,   4768,   -390,  -2985,  -1458,    460,   4688,   3390,   8873,   8202,   4432,   -347,   -245,  -1841,  -3328,   1470,  -5234,  -1647,   2114,   4462,   8482,  -2776,   -735,   3102,   3631,   7862,   3975,   1683,   3456,   -563,  -1114,   1654,   2800,    821,   4895,   5336,   5099,   4375,  -3626,   -297,   5259,  -2808,   3161,    623,  10725,  -5218,   5263,  -4061,  10758,   6925,  -4995,   1002,   8334,   3293,   2023,   3431,  -1891,   8714,   -565,    679,  -1881,   -356,  -5118,  -5571,  -2616,   -319,   4875,  -5267,   5055,  -3961,  -5374,  -3348,   6340,   1336,  -1550,  -1912,   6275,  -2802,   5780,  -3062,   9611,   7892,   3728,  -4398,   4974,  -4486,  -4265,   -353,   9304,   2696,    525,  -4624,   6091,   3034,   5556,   1062,    221,   7520,   5522,   -188,  -1139,   5190,  -3059,  -1512,   2559,  -4527,   -519,   2866,   5741,   2909,   1632,    -15,   3094,   3723,  -4617,  -2853,   1920,  -2734,  -2118,    -83,   2153,   2989,  -1560,   1113,    572,   2370,   -370,   2217,  -2392,   6506,   3170,   4815,   1257,   2109,   5336,   2766,   2389,   2031,  -3948,   3587,   -176,  -3770,    354,  -1471,  -1115,  -1717,   1503,    555,   7825,   5210,  -1591,  -6240,   7568,   4779,  -2821,  -4422,   4894,    -47,  -3042,  -5844,   9083,   2400,    -50,   1722,   2208,  -2302,  -5525,  -1818,   1216,  -2870,  -1704,   2689,   4245,   2914,  -2603,  -4337,  29900,   3892,  -1293,   1742,    226,  -1911,   1005,   -987,   -558,  -2217,   -486,   4677,  -3144,    -66,  -4828,   4734,  -5059,  -2438,    457,    227,   1417,   1678,  -1367,   -155,   1926,   1891,
          3061,   3556,   1095,   -823,   -273,   1041,   1009,  -5213,   4359,   5954,    488,  -1138,    573,   2533,  -5223,  -1589,  -3225,   5010,   3561,   3609,   1230,  -2558,  -5206,   3774,   4477,    141,     -1,   8122,   6907,   7284,   1095,    663,   4516,  -2020,   -163,   2556,   5384,   1074,     97,  -3285,   -726,   1942,   6739,  -1550,   -524,   -118,   1994,   3634,   6100,   -814,   6333,    927,    176,   5011,   -225,  -2951,    981,   6275,   2541,   5130,   3973,   2960,  -2394,   4687,   -317,   7637,   3791,  -2073,   3012,   7821,  -2038,   2627,  -3806,  -5260,   2339,  -1990,   3292,   2695,   3276,   1568,   7842,  -1239,   2339,  -3012,   7610,  -2834,  -5386,   -409,  -1619,  -1835,   1714,   2846,  -3734,   5041,   4610,    543,   6351,   7087,   -169,  -1967,   4576,   6007,  -3243,   1624,  17340,  18811,  10989,  14904,  12690,  14296,   3432,  -5193,   3454,  -1479,   6311,   6712,  -2455,    892,   3333,   2156,  -3737,  -2220,   -685,  -1948,    300,   1396,   3108,   4488,   6943,  -1826,  -1939,    759,   3248,   7538,  -5474,  -5129,   1189,    182,   7097,  -3772,   5775,  -2304,  -2188,  -1147,  -3624,    482,   4155,  -2989,  -5675,  -1848,   2270,  -1899,   2533,   6510,   9563,   3748,   7700,     26,   4081,  -4807,   1714,   3263,   1196,   2360,   7494,   5376,   1795,  -1697,  -5664,  -5465,   -691,   1816,   3460,   1327,  -5705,  -5568,   5932,  11555,   3376,   6277,   4888,   3771,   1095,   1665,   1563,   2357,   5864,    109,  -4046,  -2935,   2444,  -1879,   2960,    550,   3090,  -4057,   -570,   4020,  -5096,  -2492,  -3041,   4108,   5488,   5953,   7743,   2740,  -3966,    -49,  15410,  16355,  13840,   8476,  16878,   6066,   3447,    -82,  -1160,  -2063,    -48,   3792,   4433,   1071,  -1095,  -3096,  -5249,    403,  -2958,  -2021,     94,   4397,   1627,   3885,   6072,  -3540,   1092,    960,   2269,   5701,   4470,   4759,   3362,   5375,   1460,   2084,   6942,   4542,  -2570,  -3635,   6446,   6203,  11501,  11048,   5397,  10518,   -111,  -2138,   -239,   6633,  -3821,   1611,   5146,   -854,  -3704,    154,   7635,   2673,   8854,   5028,   5325,  -1800,  -1830,   3621,   1903,    746,  -2766,  -3748,   1115,   -519,   4703,   5665,   -132,   5465,  -5096,  -5750,  -2770,  -5495,  -3137,  -4882,  -3955,  -3117,  -3206,  -5088,   4663,   1696,   2201,   5664,   3650,  -1595,   1073,    531,   5253,   7778,  -6216,  -5438,   2943,   3441,   2066,  -3832,   6350,     59,   3265,    135,   5887,  -4904,  -4449,  -2626,  -4892,  -4124,  -2222,  -2244,   5413,   3292,  -1489,   1206,  -3886,  -1640,   2867,  -2017,   7909,   -782,   1169,   6090,   4701,   7582,   4578,  -1780,   2647,  -1052,   5075,  -5379,    969,   1382,  -2573,  -5369,  -2903,   2276,  -2288,   4237,   1398,   -881,   1822,   3471,  -4501,  -1191,   4481,   -635,  -2623,   4387,   1790,  -5291,  -2213,  -2791,  -2676,   3214,   -674,  -4313,   -188,   2613,   5154,  -1775,   3090,   3017,   7632,  -2687,   1826,  -2430,   4614,   4541,  -3217,   -966,  -2778,   -547,    960,  -1095,  -4545,   -249,   2383,   -187,   2985,   -501,   5191,   4059,   5636,  -4110,    746,   -502,  -2721,   2395,   3487,   -169,   -822,   6802,  -2333,   2121,   6600,  -2343,   4425,  -1403,  -4623,  -3899,  -5355,  -5329,   1245,  -1381,  -2987,   -211,   6829,   -218,   8258,   -677,   8170,  -2904,   -108,   2679,  -1654,  -2431,   3503,  -4467,   2993,   5063,   2786,   2187,    446,  -1533,    904,   1464,   5433,  -1099,  -5052,    469,  -2831,  -3481,  -3889,    103,   3183,   -476,   2020,  -5602,   1840,   1947,  -2724,  -3764,   2516,   1730,  -3176,  -2450,    477,   3325,  10061,   2340,   9752,   6013,   1888,   4595,   3403,   4076,   6820,   6931,   6765,   4324,  -5675,   4957,   7885,   5795,   7042,   8826,   8651,   8199,   3658,  -3860,  -2412,   7000,   8811,   5170,     77,   8883,  -5821,   1997,   7920,   2186,   1519,  12213,   -545,   -610,  -5696,  -4324,  -1617,   3588,  -1103,   2068,    842,   4608,    101,   3173,   4650,   -931,   6093,   3813,  -1054,  -1167,    283,   3990,
          -202,  -2352,   3001,   4659,   1210,   3165,   1162,   4867,   4110,  -5427,   3585,   4068,   5696,   5116,   3914,  -4712,    382,  -2740,   3236,   3573,   2282,   2377,   1276,  -4941,   7156,  -2019,   1677,  -1846,   -305,    742,  -1317,  -2263,    864,   4248,   2533,    171,  -5670,  -1736,    -28,   3363,   4327,   2782,   4360,   5081,   4659,    629,   -891,   2365,   1038,    426,   4113,  -1951,    214,   6986,  -2606,   1096,   1338,   5957,   3484,   1336,   -244,  -2310,   5129,   1638,  -1378,   4578,   -297,   1170,   1000,    748,   5449,  -4426,   4468,  -4708,    792,  -1163,   3830,   -782,     46,   4105,   1235,    565,   -661,   4038,   5114,  -3162,   5505,  -2810,   4646,   2298,   3627,   6730,   -222,   5829,  -5125,  -5032,  -3627,   5706,   4487,  -4764,   4057,    -38,   1847,    112,   8746,   8253,    411,  -1946,   6849,  -1025,  -3538,  -2621,   2353,  -1757,   2556,   5532,  -3388,   -892,   -395,  -3792,   1110,  -2075,  -3652,  -2253,   4753,    747,   1845,   4868,   4657,   3190,   5330,   9520,    653,   4363,   1725,   4777,   4068,  -1693,   9058,   5922,   -660,   -750,   4526,   1687,   6070,    -37,   1315,   1420,   4484,   2225,   4106,  -2724,   3977,   4117,   6211,   7277,  -2735,    508,   4081,   3434,   4381,   6942,   4181,   5776,   4864,   8013,  -4194,  -5495,  -1239,   6784,   1459,  -1099,   5476,   8474,   4020,   -775,   3541,   4403,   5932,   5004,   1679,  -2606,  -5507,   3472,   7591,   6029,    540,    -27,   3861,   2617,   2266,  -5899,   5045,   3672,    -73,   2968,   4922,   -620,  -6216,    823,    -11,   3271,   -593,   5891,  -2041,   8618,    167,   -817,   5052,  -1580,   5725,   1837,  -2861,   6857,   -608,    155,   1103,  -4786,  -2462,  -3163,   -955,   3760,   2302,    998,  10783,   3173,   6761,  11344,   7948,   5424,   4859,   3758,  -2590,    579,    607,   4187,    906,  -1252,   1496,  -4646,   3393,    603,   3233,  -1842,  -3853,   5586,     88,   3469,   -844,   3374,   1781,   4024,   2526,   8812,  -2300,    426,    812,   5969,   2208,   4858,   3148,   1198,  -2196,   -775,   3060,   1068,  -1116,   -248,    772,    726,  -1184,   3852,   1617,   -237,    852,   1639,   1951,   8546,    804,   1110,   4538,   3900,   5442,   3784,   -272,   7087,   4489,  -6395,    920,  -4959,   4779,   4806,  -5468,  -2889,  -5094,   5397,   2464,   2195,  -1792,   3016,   -951,  -2431,  -1659,   -540,   3503,   1435,   -294,   4311,   3110,   5040,   3823,  -4968,   2210,   1817,    330,  -1406,  -2115,   6270,   4843,   2444,  -4500,  -1822,  -4181,   1146,   1108,   2505,  -2167,   3987,   -611,   1338,   2087,   2562,  -3177,   2944,   1732,  -2768,    355,   1291,   -710,   1048,   4845,   7333,  -5818,  -2447,   3352,  -1668,  -4584,   -674,   -536,  -2989,  -5673,    -53,    259,   5113,   4132,   6982,   -106,  10825,   2010,  -3145,   6140,   4320,   3412,   8770,   -912,   5491,  -1564,  -4401,   7485,   2446,   -718,   1807,    191,   6019,  -3331,  -6356,   5453,   7576,   2149,  -1297,   -779,   6556,  -1324,    236,   2076,   8426,   8538,   6254,   2693,  -1454,  -5084,  -6420,  -1272,  -2526,   4990,   4847,   7481,  -1964,   1998,  -1564,   2717,  -1052,     43,    711,   3139,  -3465,  -3340,    896,   4185,  -3583,   6485,   1102,   2926,   3403,   4445,   1891,  -3696,  -4073,  -3185,   5056,  -1441,  -3705,    634,  -3630,   4076,   -574,     99,   5099,  -2924,    493,   3642,  -3031,    945,   3529,   4381,   7613,   7840,   5176,     38,   1250,    854,  -2956,  -2359,   -743,   2317,   3356,   2912,   3587,   5404,   4195,  -2403,   1956,   7843,   6893,   4183,  -5465,  -1919,   7008,   1343,   7818,  -2873,   -678,  -3707,   -993,   5828,   4586,  -1046,   1543,   -341,   1078,   3773,  -4824,   1340,   3398,  -4614,   3958,  -1850,  -2332,    510,  -5673,    560,  11038,   2466,  11570,   9064,   9750,   1758,   -911,  -2578,  -3765,   2752,   5374,    858,  -3290,   -433,   4254,   -883,  -1047,  -5106,   3041,  -2701,   2421,   2562,    748,  -1681,   -341,   3119,   3130,    697,  -1158,   2652,  -5681,
         -4646,   4594,   2362,   5667,   -239,  -1856,   4242,   1969,   4297,   4597,   5295,   5179,   7166,   4375,   -207,   -941,  -1103,  -2493,  -5715,  -4043,    280,  -3179,  -1467,   2377,   4714,   3250,   6163,   -460,  -1727,    781,   2280,   1063,  -3076,   4793,   8673,  -3219,   6426,    -48,   4132,   3932,  -3837,   4034,   8889,    -80,   5336,  -4575,   2545,   4887,   3290,   2672,   9225,   2143,   8497,  -4178,  -2981,   4258,  -5914,  -5720,   9233,   5019,   2527,   -793,   9105,  -2973,   3061,  -4529,   6167,   -580,   -990,    793,   5845,    143,  -4867,   1078,   3527,  -4297,  -1300,   -324,   3623,  -1097,   4479,  -5633,   1206,   7724,   1183,   -400,   5696,   4812,   4795,  -1642,   2721,  -3182,   2545,   1309,  -2676,   4540,   3585,  -1799,   -684,  -1344,   -543,  -1705,   1897,  -4124,   3592,  -4400,  21283,   9636,  16516,    784,   9291,  -3874,  -2752,   -334,   5604,  -2762,   5244,  -5711,   7826,   2224,   4765,  -5767,  -3980,  -3022,   3983,   4869,  -3482,  -4762,  -3485,  -3026,   6761,   4098,   8205,   1735,  -1173,   3097,  -4754,   2753,   1160,   3765,   1339,  -3159,   2504,   3015,  -1093,  -1671,   3645,  -3623,  -4126,   2860,  -3558,   2574,  -5235,    947,   5261,   3745,   5973,  -2960,   5093,  -4788,  -1253,   -700,   6449,   2384,    870,   3190,  -1149,  -3253,    984,   1488,  -1476,   4395,   1830,   1904,  -3801,  -5302,  -3694,  -4588,  15589,   7696,   4487,  -2454,   7753,   2400,  -5494,   5230,  -5053,   3490,  -2168,  -6005,  -3785,  -6279,   -513,   3079,  -4148,   5510,  -1398,  -4514,    227,   4534,  -2294,  -3921,   -135,   4684,   4411,   4872,   -926,    425,   -394,   2336,  16220,  15101,  15198,   4834,   9095,   4174,   1638,  -5817,   6878,   6447,   3138,  -5008,   2348,  -1309,   2228,  -4331,   -465,  -2284,   2993,   -769,  -1795,   -282,   4764,  -1621,  -3736,  -1796,  -3869,  -3755,  -2262,    498,   1688,  -6170,    302,   5261,   8745,  -3081,  -1170,  -4835,  -3380,  -5741,   8027,   8245,  12866,   -623,  11990,   4386,   3707,   4336,   -162,   5713,    407,  -1946,  -3946,  -2195,  -1303,  -5530,   1349,   2726,   -636,  -4836,   5439,  -6016,   3529,   2580,    470,   1107,  -4736,  -3217,    -87,    577,  -4273,   -129,  -4669,   2183,   -498,   -531,   3499,  -4049,  -2204,  -1619,  -2120,    857,   3803,   3337,  -4974,   2193,  -3787,   -337,   6555,   4496,   5483,   4509,   4939,   4129,  -4176,   -266,   6131,    501,   5877,   2636,   3649,   1442,  -1778,   2459,   3893,  -4918,  -2724,  -1528,   -135,  -2695,   -371,   4777,  -2177,    721,   6952,    635,   -683,   4438,  -3628,   3326,     63,   6775,    988,   3807,   1298,   3501,  -2158,  -3642,    538,    979,  -3705,  -1617,   3317,  -5680,   4946,  -1839,   4974,  -2066,   -615,  -5194,  -1931,  -3525,   2420,  -3206,  -5334,  -3498,   2920,    680,  -2024,   -717,   1190,   4780,    410,   4144,  -2691,  -5058,   5344,   1787,   4892,  -4127,   2878,   7177,  -1610,    865,   3670,   1373,   5273,   3285,   3874,   2930,   4850,  -1212,   1322,   1217,   5144,   3704,    967,   2003,  -1564,   2728,    346,  -3171,   3367,   5165,    884,   4993,   -461,  -4148,   -974,    622,   2350,   -365,  -1887,     24,  -2645,   3244,   6419,  -1176,   3474,   3609,   4345,     24,  -4981,   4002,  -3026,   2574,  -5066,   3950,   6038,  -3045,   6997,  -3861,   7003,   4291,  -1664,  -4201,    790,  -5557,  -4926,   4323,  -2647,  -3683,  -2861,  -5671,   4979,   1295,  -4114,   1359,  -3683,   3884,  -4303,    801,   4333,  -5731,  -2074,   2217,   2354,  -3592,   2310,  -1475,   2655,   -475,  -3301,  -5288,  -3013,  -4828,  -6603,  -5155,  12195,   -944,   5871,   -963,   1446,  -2235,     73,   3857,   5617,   5499,   3090,  -1974,   5630,   4287,  -4287,    340,  11172,   6835,    154,   4203,   9211,   4631,  -3958,   3672,   3371,  -2722,   8553,    664,   7252,   3993,    600,   1014,  17648,   2158,   2191,   5038,   6435,  -4159,   3874,   1800,   7553,   6245,    543,  -5837,   -529,   4559,   1606,   1900,   3171,   2439,   -497,  -1414,   1214,   3307,
           550,  -2863,   6546,   1767,   5791,   4085,  -1602,   2420,   -229,   1609,  -1301,     29,    439,  -3753,  -4626,  -5290,  -3090,  -1958,    672,  -1744,   7016,  -3525,  -2476,   -610,  -5547,      9,   7046,  -1365,  -2089,  -4299,   4901,  -3428,  -4748,   1614,   2197,  -3393,   3044,   3636,  -2184,   4148,   2308,  -1611,   3492,  -2473,  -4447,    899,    729,  -2122,  -2970,  -4515,   1576,   7413,   4867,   4033,   7688,    266,  -3440,  -4999,   2115,  -1603,   6575,     52,    232,  -1777,   4809,   -397,   -633,  -5178,  -1082,   2823,    514,    585,   4366,   3658,   -951,   2054,  -4172,  -1073,  -3351,  -3062,  -2405,  -1458,   1507,  -2494,  -1907,   4931,  -3443,  -3239,     15,  -1904,   3819,   -800,   5645,    491,   7651,   -217,  -2466,  -6045,   4299,  -4806,    678,  -3598,   6104,   4350,   1010,  -2833,   7856,  -1004,   6271,  -6133,   7554,   1099,  -2783,   3693,   2141,  -3608,   4166,    456,   1464,  -2556,   1554,   4288,  -1344,   4075,   1228,   3669,  -3683,  -1096,  -5860,   3864,   6567,   5186,   9254,   -536,   7083,  -2944,  -4497,   2734,   7661,  -2983,    669,  -2557,     56,  -1106,   4822,  -5303,   -900,   6543,   4404,  -3476,   2949,   1616,   3809,   2736,   6671,  -3160,   4943,  -1513,   7690,  -5735,  -1140,   1991,   3880,   2790,   6503,  -3428,   7791,    185,   4154,   -337,   2960,  -2594,  -1736,   2404,    533,   -692,  -5522,  -5768,   5800,   6486,   6298,   1506,   3472,  -4185,  -1290,  -4601,   5742,   8729,  10168,  -5096,   5817,   1102,   -244,   -355,  -2218,   3180,    931,  -2320,   7187,   -793,   -967,   3447,   3274,   -613,   1922,  -1098,   4567,  -6021,  -2205,   2620,   8495,   -450,   1800,  -1725,  -2692,   4659,  -1495,   1747,  -1706,  -4294,  -4110,  -1373,   4123,   5527,  -3147,  -3892,  10686,  10823,   2118,  -1641,   4160,   3832,   4069,   4677,   -577,   7013,   2756,   3953,  -3513,   4342,  -6418,   3882,  -2994,  -3995,   6011,  -3699,   3155,   -756,  -3256,   1785,   7777,   6726,    807,   3687,   7484,  -3769,   4468,  -3341,   2558,   5968,   4017,    452,   1300,   -949,  -1417,   2597,   1566,    595,  -1340,   3331,   5354,   5625,  -6247,  -3753,   5781,    564,   8845,  -3678,   4700,  -2376,   4086,  -1153,   6984,   7620,   5227,  -5154,   -186,   -852,   4880,   2820,  -1723,  -2631,  -2922,  -4098,    373,   2228,  -3242,  -3497,   2998,   -520,  -5779,   3412,  -4008,  -5695,  -3716,   1068,  -1305,   2919,   5372,    829,   1763,   1931,  -2415,  -4157,    495,   5305,   7260,  -6350,   7748,  -5550,  -2788,   3531,   2967,   2639,  -1147,    709,   3954,  -1978,   3004,  -3025,   8851,   5847,  -2305,   3155,   5503,  -4330,   -868,  -1229,  -1077,   4040,  -2378,   1534,   5223,  -4180,    470,  -1459,   4729,  -1012,   2882,  -3631,  -2151,  -5509,  -4136,   3389,  10697,   7685,  10361,  -4708,   9526,  -1524,    958,  -5840,   3657,    184,   8185,  -4896,   8250,  -6588,  -5444,  -4673,   7301,   2074,   5797,   3754,   7026,  -4025,  -4605,  -3362,   3159,   2383,    405,   2703,  -1795,  -2728,   3881,  -6111,   6014,   3901,   1791,  -2708,   5557,   -941,  -5073,   2901,   7020,   1260,   5808,   4896,  -2343,   1610,   -423,   2710,   2913,   2894,   3778,   4197,   4380,   3592,   1352,   -439,   5187,   2460,   7014,  -5426,   3644,  -5658,   2416,   4315,  -4208,    424,   2314,   4118,  -4009,    410,  -2880,  -4961,    190,   1356,    551,   5149,  -4562,  -3116,   1993,   4561,   1706,   1324,   4025,   1504,  -1098,  -5357,  -3223,  -2408,   2868,   1179,    270,  -4108,  -3666,   1613,   3457,   1890,    322,   6864,  -2055,   4474,   4543,  -5766,  -1643,   -112,   5918,   4333,   6824,   4648,   1643,  -5954,  -3723,   1447,   3065,   5095,   2716,  -2014,   7705,   4585,   1638,  -5191,   -990,  -1960,   5506,   5299,  -2867,   1230,    236,    315,  28431,   -229,  10734,   -395,   4435,  -1011,   3831,   1270,   3328,   1259,  -3449,  -5514,  -2069,    875,   5782,    404,  -1544,   1104,   5400,  -5046,  -2460,  -5300,   3365,   1576,   7984,  -3458,    272,   4419,   2608,  -5880,
          3612,   1104,  -1137,   1366,   2580,   1007,    430,   4645,   1939,  -1934,   7064,  -2724,  -5168,   -941,   1128,  -2467,  -4204,   5114,  -2921,  -4200,  -4478,  -1272,   1758,    629,    -94,   3844,   -847,   6421,   1139,   3610,  -1931,  -4287,   8043,  -6033,   -938,   5968,   1591,   4449,  -5570,  -2942,   -886,  -3910,   4685,   5555,   3333,   3957,   1577,  -4763,  -1522,  -1409,   2201,   2988,    872,  -3306,   2775,    360,   5824,    979,   4010,   4479,  -1261,  -3708,   3797,  -1541,   3636,  -1152,   1738,   -184,   4040,   3157,   3237,  -1863,   -391,  -4292,    893,   4050,   1665,   1883,  -5615,  -3915,   5431,   5112,   6045,   5795,  -1532,    855,   1037,  -5676,   -240,    690,    959,   3095,  -6254,  -5312,  -4693,  -2580,   7673,  -1841,   6886,   6488,   3460,   4946,  -1993,  -1453,  14314,  -2897,  13932,  10433,   3514,    539,  -2185,   3580,   5124,    258,   7453,   5506,   2236,   2314,   2413,   4516,   5705,    100,   1096,    226,   3365,  -5384,   1359,   5057,   -104,  -1287,   6230,   4920,    269,   4229,  -4830,  -4448,  -3427,  -3775,   1678,  -2215,    874,   2257,    149,  -1685,  -2643,  -3697,  -3463,  -4182,   -813,   3079,   3157,  -4684,   3810,  -1859,   8406,   1080,  -6409,  -5031,   -493,  -2274,   2267,  -2438,   3920,   7905,  -4649,  -3751,   2414,  -1961,  -3925,  -4847,  -5342,    912,   5264,   2734,   3027,   2295,  11458,  -4949,   1597,   9451,  -1368,   3599,    658,   3404,   5260,   4545,  -2877,   -641,   4840,   2101,  -6019,   4965,  -5423,   1381,   4986,    718,   3096,   3118,   -641,   1655,   2224,   -964,    620,   2542,   1523,  -2520,   -612,  -1875,  11120,   3471,   7806,   9846,  -1431,  -2403,   -257,  -1715,   6176,   4236,  -3069,   3708,    652,  -6186,   2241,   -996,   5979,   5267,  -2059,   4816,  -5852,   5393,   -410,   4240,   5139,   2625,   5085,   7125,  -5926,    937,   2169,  -2939,  -2513,   4096,   3513,   5389,   3373,   3671,   3190,   1786,   4542,  -4918,   5819,   5171,  -2437,    327,  -3926,  -4060,   -813,    859,  -2228,  -1510,   2904,  -3379,  -5339,   -744,   2080,   2276,   6275,   6576,  -2641,   4179,    494,   5272,  -4512,    633,   1511,  -1736,  -5456,   -462,  -4391,  -4234,    537,  -4608,   4107,   2945,   5170,  -3941,   5531,   1550,  -4795,  -2455,    381,   1732,   1055,   1180,    -14,  -2239,   5578,   4179,  -1871,   4472,  -1657,  -3683,  -5293,   -432,   -202,    211,   1658,   2497,  -6120,  -1644,   5183,   3658,    892,   1128,   2813,    906,    309,   3471,  -4425,   1023,   1112,  -6040,  -3570,    484,  -3241,  -5787,   4626,   3702,   7305,  -1815,   6732,   6071,  -1248,  -1298,  -4363,      6,  -4889,   1455,   5218,   -624,   1436,   1289,   -521,  -3548,   3629,   1029,   -297,   3091,   5288,  -1903,   4014,    311,  -1288,   3827,   -887,   2432,  -2015,   1208,  -1691,   4901,   -410,  -5584,   -745,   6366,    819,  -4751,  -1588,   1898,   8055,    828,   6137,   6310,  -5690,  -4955,  -2327,    572,   1838,   1632,   3995,   1403,  -3089,  -3654,   2594,   3560,   1847,   3280,   5532,   1895,  -3963,  -2177,   2606,  -5656,   3700,   2255,   1414,    663,    797,   1849,   3139,   1351,   4666,  -3304,   1793,   4513,  -5907,   -987,  -1110,   5724,   1069,   4954,  -5607,   4859,   5519,   1463,    610,  -1083,   5544,  -2762,   7624,   2194,   1925,  -3636,  -4629,  -4637,   3421,   1029,   2476,  -1762,  -4303,   5016,   5504,   -406,  -5456,  -3746,  -5359,  -1720,  -5764,   3890,    417,   5021,   5777,    744,   -370,   5074,   4196,   5131,  -5280,  -5248,   2767,  -5175,   2854,   2612,    818,   3506,  -2140,   1880,   3569,   1062,   6681,   3052,  -6159,  -1950,   2745,    260,   6178,  -2701,   1626,  -1246,  -3678,   2726,   1192,    431,   1040,  -4663,    153,   6170,  -2590,  -3327,   -218,  -4407,   5489,   2165,  -2828,   3349,   3999,   2398,  -6350,   2022,    211,   4051,   6556,  -1135,  -6389,   3860,  -2774,   2299,   4951,   2644,   3835,   7002,   -322,  -1258,  -5221,  -5603,  -1563,  -6190,   -215,   4532,  -1202,  -1202,  -2434,  -4624,
          5373,   -705,  -2501,   7500,  -3855,  -4555,   -738,   -344,   1286,  -2949,  -4971,  -4200,  -2419,   4565,  -3630,    969,   3038,   5147,   1235,   -478,  -6494,  -1800,    -46,    -34,   1051,   5161,   2194,   3534,   5028,   4010,   3601,    921,   1935,  -4367,  -3501,  -4446,   2031,   4729,  -1482,  -1231,   4707,   -434,  -3229,   3050,  -3609,   2047,   1033,    185,   -792,  -2961,  -1517,   6246,  -6200,  -4441,    616,  -3282,  -1199,   3825,   1884,   1443,   1215,    -70,   1160,   -311,    624,  -2450,   2962,   3268,   3145,   3926,  -4328,    667,  -4538,   5557,   1725,  -1607,   4723,  -4074,  -1371,   -350,   2404,   3199,   -755,    913,  -4871,  -3716,   2176,  -1985,    348,   4705,   8611,    162,  -5310,  -3129,  -3256,  -1261,   1072,   -970,  -1565,  -1319,  -3775,  -3693,   1092,   4651,   6064,  -5441,    830,   -692,  -6210,   1183,   4103,   -905,  -5162,   2328,  -1377,  -2793,  -1056,   2475,   3527,  -4778,  -5155,   5697,    442,    937,    196,  -3651,  -3527,   5328,   2181,   2820,   7806,    545,  -2696,   2174,  -3800,  -2600,   1517,  -3650,  -1437,   6855,    513,  -5393,   4950,   2889,   4203,   1064,   1545,   2343,   4407,  -1970,  -4017,  -3857,   4952,  -5763,   3258,   3096,   2788,  -3615,  -1445,   3523,  -1588,   4437,   8038,    919,  -2789,   2066,    -61,   5605,   -334,   2413,   8272,   6437,   -676,    759,   3265,   3157,   2072,   3318,   7066,  -1897,   3174,   4932,  -5013,   2575,   5952,   4718,   5607,   9185,    902,  -3667,  -1489,  -4576,    224,   4846,   7885,  -2786,  -1163,  -1588,  -6291,   2777,    120,  -4078,   7518,  -1125,    871,    -89,   4134,  -4989,  -2337,  -6038,   6124,   6434,  -1824,   1340,  -4841,   5423,     20,  -2566,   3864,   4580,   1508,   4407,    400,  -2631,   7952,   3148,   8157,   9113,  -3125,  -1911,  -4245,   3485,  -2984,   1063,   5186,   6349,   2900,  -6111,   1172,   -375,   5489,  -4572,    865,   -270,  -2388,  -5005,    178,  -2986,   4365,   4887,   2850,   8746,   3829,  -4364,   5145,  -1309,   6764,  -4347,  -2977,  -1974,  -5361,  -1866,   5131,   1180,  -2866,   5636,  -5102,    284,   4755,  -2723,    136,   -900,  -1810,  -1927,   -999,   5061,    307,    499,  -2356,  -4515,  -1661,    748,   5414,    335,  -1138,  -3153,  -2807,   3284,  -1202,  -2160,  -4716,  -4067,  -1726,   4035,  -4600,  -3131,   -769,  -5415,    750,   4690,    997,   4376,  -1118,  -1070,   1286,  -3279,  -4379,  -4384,  -1495,   2411,   5521,    255,   1020,   4865,  -2696,   3200,  -5122,  -1100,  -6370,   5037,  -1827,   4920,   4644,  -1028,   1440,    545,  -3474,  -3014,  -3148,  -5932,   4324,    920,   -919,   1587,   4406,  -2742,   3639,   2600,   4206,   -759,   3827,    633,   3984,  -4405,    695,  -5167,  -4715,  -4595,  -1403,   -223,   4104,   -668,   2661,   3049,   6680,   6487,   5186,   5101,    889,   3935,  -1786,  -2704,   6962,   5451,  -2761,  -3097,  -4879,   -552,   1347,  -2748,   -187,    798,  -3403,   2237,    -67,  -5379,   8919,  -4514,   2947,   3305,   3759,   2355,  -4771,  -1783,   4207,   4161,   7204,   5028,  -1883,   3593,  -2749,    704,    -55,  -2132,    -52,     80,    622,   1824,   2144,  -2496,   4693,   3879,   2212,   1891,   4673,  -3261,  -5743,   4539,  -2241,   3308,   2574,  -3594,   2666,  -2138,    748,   3471,  -3583,   3321,  -1425,   1206,   4116,    512,  -5018,   1570,   4983,   2436,   4103,  -5082,    988,  -1851,  -4042,   3022,   4195,  -4770,   1379,  -2327,   4151,   -832,  -6102,  -5341,   -596,    -42,   5917,   1064,  -1391,  -2676,   5109,  -4170,   3910,   -131,  -1272,   3758,    646,  -4015,  -2606,  -3399,   6584,   1997,   3979,   3175,  -3011,    118,  -5540,  -5672,   3202,  -2179,   3310,   8320,  -5851,   3789,  -5876,   3842,  -1771,    273,   4546,  -4405,  -1694,   5559,    296,    904,   7450,  -4125,    880,  -1176,    589,   2744,   1563,   2254,   -839,  -5739,    524,  -2234,   1133,  -4064,    -73,  -4244,   5383,  -5295,  -3655,   5437,   4831,  -2214,   5581,  -3890,   7978,  -3066,   5337,  -1914,   3276,  -2577,   5018,   -251,
          -175,    508,   -865,   1261,   -470,  -2607,   2275,   3837,  -3289,   4141,    105,  -1652,   -974,  -1927,   3688,  -2435,  -3150,   3237,   1227,  -3611,   2248,  -1915,   4794,  -4292,   4908,  -1156,   1456,  -1869,  -2941,  -1709,   2760,   5011,   3381,  -1324,   2981,  -5099,   1017,   7162,  -5044,  -5278,   4903,  -2150,   4827,    779,   3381,   6583,  -5282,   4843,   6156,  -5166,  -5195,  -4181,  -4280,   4549,  -3755,    217,   3106,   2181,   5372,   2750,    900,   1047,  -4591,   5450,   7140,  -3097,  -1792,  -4614,   1465,   1968,  -2146,  -4106,   1684,  -2947,  -1935,  -4140,   3018,   -306,   1265,   3785,   7541,    726,   4183,   3892,   2150,   6678,  -4269,   3043,  -2013,  -4228,  -4302,  -2811,  -3799,  -2874,  -4201,   5082,   5589,  -4630,  -1401,   2908,  -6135,  -2681,   4336,  -3199,  16067,   -867,  -1855,   2609,    194,  15052,  -2594,   -868,   5638,   1853,   2868,  -2870,   1643,   -145,   4515,  -1737,  -1001,   1079,  -5755,   1414,   5234,   2230,  -1699,   -544,   3383,   2635,   3044,   2813,  -1697,   5955,  -2390,  -4850,   5163,  -1312,   2194,  -2511,   3659,   3049,   -424,   1275,    957,  -3096,   1319,   5659,   1843,  -5181,   -862,   3880,   5204,    458,  -4934,   2279,   1531,   7218,  -5444,   1826,   4446,   3329,    349,   2789,   5484,   3106,   1064,   4523,   3142,  -1486,   -709,   1632,   2471,   2001,  -4891,    790,   2046,   3676,   -554,  -2490,  -3387,   8444,   -235,  -4368,   4888,   4194,   2583,  -2522,   4695,  -3076,  -2423,    951,   3579,   3071,   5492,   2114,   2389,   3837,   3304,  -1817,   3968,  -4216,  -2355,   3673,   4628,   7452,   2069,  -2324,  17170,  -2124,  -5726,   2756,    463,   7393,   5120,  -3806,  -3801,   1672,  -5683,   5705,   3263,   4423,   3078,  -5218,   3580,   3983,  -5583,  -2526,  -3539,  -3896,  -4417,  -1682,   -285,   4482,  -4773,  -1801,  -5111,  -3009,  -5098,   2785,   -666,   4679,   4545,  -5511,   1204,   8148,  -3041,   -916,   9353,  -4140,   2150,  -3223,    447,   6887,    882,  -2048,   3597,   -931,    188,  -3229,   1720,  -2968,   -727,   1101,   9594,   2269,  -1598,  -4364,   -911,   -709,  -5369,  -3018,   3986,  -4069,   2314,  -5227,  -3685,   -848,  -2904,  -1620,  -1056,  -5682,   4182,    340,  -5667,  -5455,   2869,   3807,  -1602,   5396,  -4483,   5602,  -5669,  -1207,   5029,  -3006,    -50,  -3761,   1444,  -4156,  -5143,   5789,   2004,  -1820,  -3451,   3057,   -213,  -2240,   -329,  -3160,   4646,   2000,  -4105,   5411,   4555,   5642,   2068,   1361,   2183,   1979,   2943,   -859,   3231,  -2178,     70,   4964,  -1691,    431,  -1889,  -5095,  -3387,  -3343,  -1471,   8191,  -4369,  -1958,    408,   4424,    212,  -4600,  -3045,   3210,   -495,   -227,   1093,   5190,  -2912,   1931,  -3245,  -3747,  -3948,   3088,    800,  -2342,   3658,   5255,   2532,  -2664,  -3928,   5705,  -1519,   3162,   -144,   3943,  -4667,  -2141,   3033,  -2089,   4158,   3541,  -1908,   1287,  -5604,   5347,  -3217,  -5210,  -4746,   4416,    296,  -1158,  -5036,  -3293,     73,   4460,   -209,    103,   1027,   5646,   1542,  -4351,  -3037,  -5377,   1024,  -2196,    181,   5381,   1930,  -3856,  -2275,   1186,   6093,  -5772,  -5202,  -3846,   3315,    948,  -2588,   2276,   4949,   3491,   2748,  -1620,   3959,   -313,  -4760,  -2993,   3260,    906,     83,  -3220,  -6106,   4634,   -474,   5060,   3121,  -2144,   2686,   3745,   -870,  -4731,    321,   1379,  -3954,  -1313,   -843,    941,   2195,   4441,   2978,   4821,  -1844,  -1443,    737,   1640,  -4222,   3503,   1790,   1579,  -2395,  -2789,  -4537,  -1674,  -5621,   -291,   3842,   2277,   5476,  -2942,   2315,   4823,   2567,   -184,   -524,   1815,   5889,   2441,   -170,   5729,  -5577,   1125,  -5279,  -5798,   4043,   1285,   5550,  -5583,  -5050,   9609,   1389,   2230,  -2234,  -3392,  -5734,   3642,   1695,   4271,  -2143,   1518,   5828,   3615,   3168,  -2995,  -4517,   7907,   4677,    536,   2180,  -2112,    143,  -4949,   5269,   2829,   4024,   1673,    565,  -2800,  -4555,  -5474,   2200,  -1199,  -2243,   3978,
          5161,  -2905,  -5248,  -1065,  -2687,   3110,  -5689,   -536,   3251,  -4260,   -339,  -2892,  -3879,   5029,   1817,  -3293,   6016,   2982,    528,  -2602,   -276,   6769,   2060,   4146,   5420,  -4737,  -4898,  -1865,   -378,   1717,  -5615,  -1022,  -2451,   4210,   2062,   2652,   5125,   3263,  -2345,   5014,  -4149,  -3962,   1987,   3246,  -4334,  -2341,   2390,   4023,   -795,   4945,   3733,   3198,  -1238,   2203,  -5162,   1393,   7034,   3301,  -3272,  -2622,   4691,    284,   4642,   1378,  -5229,   2782,  -5289,   1903,  -3481,  -1116,   3876,   -450,  -3420,     -7,  -4350,  -2851,  -4556,   3292,   4568,  -3431,  -4705,  -2767,   5129,   -602,   2683,   2337,    772,   5409,   1742,   3003,   -687,  -4081,   1278,   4543,   -617,  -4769,   4900,  -4434,  -3732,   2906,   -791,  -5047,     46,  -1025,   8572,   -504,  -2713,   5462,    785,   2334,   4698,  -3139,   -699,   -856,  -1827,  -1786,   4386,   4894,   1972,  -2322,  -3255,  -1036,  -3698,    282,   -283,    966,    386,  -3247,   -983,   2190,   5640,   2824,  -1494,   7348,  -4509,  -5115,    512,  -6092,   2348,  -4854,  -2295,  -1555,   1464,  -1779,   2887,   2705,   5163,   2015,  -5104,   4566,   1145,   1896,  -2571,  -6235,  -1634,  -1592,   2553,   2027,  -3709,   -710,   -927,  -1836,  -4168,  -2066,   -784,   5724,   -519,   4264,   8165,   -575,    871,   -328,  -5720,   4698,   -266,   5445,   2226,   4359,  -5743,  -1128,   -779,   5612,   2372,  -5120,   6666,  -5371,  -2393,  -1637,  -4578,   7662,   1023,   1749,   6101,   1087,  -1876,   1715,  -1156,    111,   1507,  -5241,   5335,   2208,   -770,  -3680,   3385,   3494,  -3259,  -1749,   5076,   2296,   2314,  -1412,  -4656,   3271,   4309,  -3854,  -2892,    863,   2813,   2403,  -4786,   4077,   1011,   3637,   3039,  -5747,    470,  -1390,   4193,   2043,   3958,   -204,   1173,    279,   2804,  -1913,   -560,   6513,   -861,   -411,    483,   4298,  -4281,   -712,   4955,  -3900,   3625,    645,  -1354,  -5434,  -5470,   3651,   5391,  -1901,  -1210,   5128,  -1067,  -5807,  -4801,   2976,  -4751,   6960,   1388,  -1095,   3631,   5720,  -2267,   2470,  -1568,  -2463,   3492,   1079,   5438,   3965,   -979,   5071,   2459,   1760,  -4005,   3819,   7340,   1300,   3569,   5638,  -6127,  -3866,   -143,  -4928,  -3933,   1979,   3936,   -750,  -3632,   3563,  -3914,  -1861,   4184,  -2207,  -4530,  -3532,  -5062,  -4289,   1135,   -503,  -2312,  -5615,   4153,   -255,   4930,  -4404,  -1913,  -5559,    128,   -944,   1570,  -3778,   2843,   6033,  -3922,  -3824,  -1362,   -744,   4718,   -895,   4626,  -2870,  -2388,  -4589,     43,  -3941,  -2592,    817,  -3658,   5650,   2397,  -1648,   2506,   4550,  -1893,    129,   -610,   6581,   -411,   4395,  -3355,   2260,  -2206,  -3169,   3951,  -1041,   5585,    132,   9268,   -987,  -3570,   1317,   2566,  10235,   -248,  -2669,   4314,   4030,  -2769,   5588,  -3736,   8828,    206,  -4791,  -1884,   1557,    222,   -813,  -5236,   1489,  -1576,   2976,   1803,  -6589,   1446,  -3760,  -2237,   6969,   2854,   -420,   1275,   2348,   4129,  -5717,   2134,   1398,   3908,  -2478,  -2252,  -4860,   1546,   1987,  -3110,   6882,  -2963,  -3819,   3827,   3539,   5674,   -244,  -5362,   3900,  -4306,  -3247,   2974,  -5243,  -4888,    614,   1158,   -717,    690,   1894,    924,   5080,   4296,    406,     38,  -5128,  -4896,  -3987,   2040,   5517,  -1541,   4611,   -710,   2058,   5195,  -1629,   1943,  -1029,  -3006,   -267,    834,   1440,   1784,  -4962,   -335,   2705,   2319,   1967,  -1341,  -4382,   1419,   5327,    999,  -4003,  -5448,   2812,   4851,   4828,   3635,  -3489,  -1739,   -323,    764,  -4178,  -1732,   4228,   1527,   3574,    158,    781,   -834,  -2398,   1426,   2574,  -4228,  -4754,  -4417,    306,   3327,  -1950,   -205,   1633,  -5141,    703,   -425,  -2649,   1873,   2982,   5622,   -978,   4314,  -1253,    989,    877,   3463,   3565,  -4259,   3187,   4725,   -840,   1523,   1442,   5719,    614,  -5251,   4919,   3228,  -3072,   7182,  -2033,   -334,   4186,   4998,   6899,  -1024,  -2012};

    const static Filter<int16_t> fused_gemm_1_filter(fused_gemm_1_filter_element, -15, {1, 1, 128, 64}, {1, 1});
    const Filter<int16_t> *get_fused_gemm_1_filter()
    {
    	return &fused_gemm_1_filter;
    }

    const static __attribute__((aligned(16))) int16_t fused_gemm_1_bias_element[] = {
           138,    139,      0,      0,    -16,      0,    -10,    134,    -16,    137,    -39,    120,    126,      0,    188,    -47,    -11,    -32,      0,      0,   2078,    127,      0,    189,    -15,    -42,    161,    -18,      0,    -31,    195,    145,    136,    150,    161,    162,    136,    157,    -30,    -44,    -47,    -41,    187,    132,    157,    -39,    123,    -51,    132,    -36,    126,    126,    -44,    -32,    -37,      0,    134,    -45,      0,      0,    -29,    120,    -12,    -17};

    const static Bias<int16_t> fused_gemm_1_bias(fused_gemm_1_bias_element, -11, {64,});
    const Bias<int16_t> *get_fused_gemm_1_bias()
    {
    	return &fused_gemm_1_bias;
    }

    const static Activation<int16_t> fused_gemm_1_activation(ReLU);
    const Activation<int16_t> *get_fused_gemm_1_activation()
    {
    	return &fused_gemm_1_activation;
    }

    const static __attribute__((aligned(16))) int16_t fused_gemm_2_filter_element[] = {
         -1500,  -2353,   3088,    687,   1627,   1071,   -906,  -5711,  -1632,  -6006,   -824,  -4829,  -3636,   4265,   -914,   -167,   3550,   3924,    926,   1401, -26574,  -6224,   3666,  -6505,    651,   3573,  -3136,  -1091,   4358,     21,  -3678,  -6118,  -5010,  -5919,  -3823,  -7503,  -2009,  -2315,   3785,   -143,   2469,    -96,  -3239,  -6108,   -784,   1143,  -5010,    155,  -2447,   1326,  -4662,  -1990,     25,   2954,   -606,  -4344,   -124,    674,   2570,   3399,    356,  -6222,   3993,  -1476,   5934,   3617,  -2823,   3334,   -630,  -3236,  -3606,   5995,  -4079,  -1109,  -1311,   6237,   4294,  -3159,   3199,  -1702,   1931,  -2460,   1993,    -33,  25667,   5893,  -1426,  -2082,  -2020,   2432,   4554,  -1440,  -1126,  -3723,   5589,   6852,   1264,   3629,   1364,   7558,   4752,   5395,   2745,  -2312,   1451,  -1380,    813,    944,   3551,   -970,   3837,  -3826,   3589,  -4279,   3181,   5898,  -1518,     86,  -1414,   4428,   5873,  -4385,   4807,  -4687,    319,   5518,  -3008,  -3187};

    const static Filter<int16_t> fused_gemm_2_filter(fused_gemm_2_filter_element, -14, {1, 1, 64, 2}, {1, 1});
    const Filter<int16_t> *get_fused_gemm_2_filter()
    {
    	return &fused_gemm_2_filter;
    }

    const static __attribute__((aligned(16))) int16_t fused_gemm_2_bias_element[] = {
           -28,     29};

    const static Bias<int16_t> fused_gemm_2_bias(fused_gemm_2_bias_element, -9, {2,});
    const Bias<int16_t> *get_fused_gemm_2_bias()
    {
    	return &fused_gemm_2_bias;
    }

}
