#include "simple_network_coefficent.hpp"
using namespace dl;

namespace simple_network_coefficent
{
    const static __attribute__((aligned(16))) int16_t fused_gemm_0_filter_element[] = {
         18199,  11703,  17241,  -3349,  -2706,   2973,  15458,  14385,   -512,   7272,  -2774,  -3364,     -7,  15693, -11674,  -2705,   9142,  10528,   7888, -12802,   9401,  -4420,  -5645,  -5045,  14830,   3801,  10671,  13397,  12753,  -4256,  -5091,  -5589,   1074,  -5246,  -5533,    -91,  -1038,  11619,  -6836,  12935,  -3447,    -73,  -2296,   -257,  14525,   7480,  -1891,  11556,   5223,  13515,   1362,    -79,  11102,  11588,   6152,  15957,  12750,  12120,  -3125,  -4784,   9907,   6517,  13067,   2071,  -1958,  14969,   -169,  -3676,  17412,  10432,  -2640,  12106,  -1407,   1781,  -2421,    294,   -747,   5793,  -1944,   7322,  -2608,  14471,  13977,   -996,  -5296,   5910,   2522, -10801,  -5901,   7021,   7229,  14889,  -1882,  11802,  16361,  12875,   3021,  -5495,   3554,   7048,  14951,  -1271,    470,  19298,  15233,  15759,  15859,   9758,   5599,  -2710,  -4485,  -2161,  -4417,  -1911,  13067,   8309,  -1273,  12384,  15358,    -68,  15403,  -1051,  11789,  11552,  12585,   8103,    577,  -1516,   8249,  -1359,   6238,  -3752,    465,  -5711,   4312, -10235,  14171,  -6772,  11141,   -365,  -4123,   -926,  16531,  12860,  10286,  12885,  13100,   -654,  14080,  -4214,   8494,    482,  11659,  11616,   8240,  17060,  -3314,    688,   7801,  -5425,  14475,  -4101,   7180,   3199,  10016,  -1515,   7126,   7859,  -4494,  -4440,  12107,  12998,   8914,  -6068,  13968,  10613,   7950,   9705,  12261,  11391,  15320,  11101,  -6818,   8647,  11902,  -1171,   4111,   6687,   -213,   9919,  -5593,   7784,   3698,  -3310,  -1447,  -4974,   5720,  13783,  -5114,  15654,  11439,   -622,  -1011,  -2991,  15194,  12395,   -589,    418,   -563,   8660,  10545,    -18,   1912,  16314,   5483,  -3139,  -1042,   9679,   9336,  -4000,   9889,  -2773,  10869,   -835,  13076,  13667,  -1808,   6171,  16432,  -9857,    321,  -1406,    640,   8966,  -3870,  13276,   1290,  12594,  -3421,  -2792,  -3895,   5518,  -2604,  -4069,  -4663,  14661,  -1593,  -1611,  17873,  14021,    -58,  -6173,   -827, -10679,  12944,   -445};

    const static Filter<int16_t> fused_gemm_0_filter(fused_gemm_0_filter_element, -15, {1, 1, 2, 128}, {1, 1});
    const Filter<int16_t> *get_fused_gemm_0_filter()
    {
    	return &fused_gemm_0_filter;
    }

    const static __attribute__((aligned(16))) int16_t fused_gemm_0_bias_element[] = {
         -4560,  -4234,  -3666,      0,      0,  -3727,  -3265,  -3040,  -5613,  -3533,  -4573,  -2997,  -5454,      0,      0,      0,   -885,   -139,      0,   -469,  -4287,  -4153,      0,  -5005,  -3999,  -5256,  -1041,    -90,  -4287,  -4032,  -4377,  -4703,      0,  -4356,      0,   -394,  -4268,  -4457,      0,  -4328,      0,  -4704,  -4473,  -4407,      0,  -4121,  -3695,  -3127,  -3691,  -3619,  -3962,  -4140,  -4654,      0,   -530,  -4430,  -3754,      0,  -5088,  -4869,  -3628,  -4509,  -4118,   -100,  -5208,      0,  -4062,      0,   -552,      0,  -4341,  -3203,  -5069,  -5012,  -4786,  -5149,  -4164,   -826,   3781,   -683,  -4148,      0,  -4589,  -3349,  -3861,      0,  -4900,  -4550,  11894,  -3851,  -4496,  -4076,  -3918,  -4293,      0,  -3320,  -4097,      0,      0,      0,  -4569,  -5352,      0,  -4139,      0,  -4244,  -4047,      0,   6029,  -3408,  -3788,      0,  -3653,  -5006,      0,  -4435,  -4612,  -3164,   -465,      0,  -4634,  -4340,   -189,      0,      0,  -3198,  -3683,      0};

    const static Bias<int16_t> fused_gemm_0_bias(fused_gemm_0_bias_element, -15, {128,});
    const Bias<int16_t> *get_fused_gemm_0_bias()
    {
    	return &fused_gemm_0_bias;
    }

    const static Activation<int16_t> fused_gemm_0_activation(ReLU);
    const Activation<int16_t> *get_fused_gemm_0_activation()
    {
    	return &fused_gemm_0_activation;
    }

    const static __attribute__((aligned(16))) int16_t fused_gemm_1_filter_element[] = {
         -3319,  -6156,  11947,  -8634,  14377, -11970,   6402,  -2645,  -1533,  -2883,   7567,  -7231,  11223,  -6135,   4723,   1640,    136,  -6138,   7652,  -4012,  12362,  -4639,   7811,  -2326,   2354,   -208,  -1194,  -2605,   -929,  -2395,   1295,     26,    -52,  -2032,   2797,    369,    999,    207,    780,  -2380,    625,  -1047,   7069,  -4525,   7681,  -8310,   7892,  -2368,  -2637,  -9614,   9524, -12472,  15084, -11323,  10569,   2303,   1835,  -1458,   9801,  -8727,   7745,  -9788,   6842,   -672,    627,  -4350,  11450,  -9109,  15824,  -9663,   8650,  -3011,   1965,   1766,   5970,  -7630,   8391,  -8383,   3079,    117,   1523,  -5049,   6243,  -7220,   8305,  -5753,   2731,   -603,   -485,  -5315,  11157,  -8446,  11050,  -7776,  11100,  -2342,  -3040,  -7097,   9459,  -8810,  12600,  -7333,   3274,    369,    359,  -2648,   1062,   1434,   -486,   2860,   -188,   2638,    506,  -1764,  -2560,   1030,   2607,  -1847,  -2289,  -1423,  -2064,  -2411,    514,     80,   -267,  -1490,   2876,   -486,  -1630,  -1279,    430,    451,   2295,  -1693,    940,   2080,   1274,  -1332,   2508,   -372,   -755,   -179,  -1486,  -1725,  -1173,   -284,    175,  -1215,   2816,   1521,    336,    876,  -1220,   -366,  -1791,    102,  -2405,  -2383,    493,   1012,   1158,  -5410,   3838,  -3778,   8324,  -6936,   2282,  -3104,  -2267,  -1568,   4038,  -7755,  10725,  -9126,   6128,    369,   2381,   -623,  -1412,   2492,   1874,   -314,   2239,   -458,    874,  -1969,   4119,  -6761,   8649,  -7015,   2472,   1393,   -129,  -3707,   9261,  -6834,  10700,  -5367,   8377,  -1342,   2289,  -4687,   3689,  -4789,   5809,  -4330,   7135,    -86,    393,   -980,  -1628,   -307,  -2962,   -763,   3304,   1912,    571,   2278,    148,    582,   2489,  -2433,  -2019,   2862,    131,  -4177,   3107,  -3178,   9593,  -1669,   1808,   2499,   1169,  -2632,   3255,  -8404,  10491,  -5247,   5360,    -18,   1158,  -3833,  10012,  -8989,   9953, -10498,   9710,    497,  -1033,  -6293,   5871,  -7568,  10668,  -9180,   7501,  -1204,   2472,   1740,    271,   -979,  -1859,    735,   -550,    611,    807,  -3817,   9561,  -4928,  11837,  -9138,   5150,   -459,   -172,  -1482,   1699,   -779,    130,    147,  -2348,    393,   -834,     52,   2223,   1770,  -1330,   2762,    942,   -397,    742,  -2495,   8852,  -8742,   9257,  -7632,   7073,   1685,  -3233,  -1257,   3982,    253,   7426,  -4892,   3378,  -1602,    808,   -527,   -758,    470,   1532,    783,  -2413,   2197,    100,  -3218,   7504,  -4643,   9884,  -6529,   2288,  -1694,    138,   -544,    827,    842,  -2694,    776,   1418,    584,  -1519,  -3311,   5311,  -4128,   9498,  -4836,   2054,  -1892,   1458,  -1452,   5247,  -5900,   5808,  -8628,   1493,   -913,   -182,  -1360,   3963,  -8101,   5818,  -7613,   7387,   1230,   1420,    341,  -1192,   1203,  -1522,   1392,   -150,    275,  -2146,  -4520,   8501,  -6547,   7556,  -8136,   2705,    540,  -2129,  -3205,   9144,  -7128,   9033,  -5512,   5103,   -741,   -193,  -1860,   6292,  -7780,  10851,  -5944,   7318,   -359,  -1164,  -4286,   3293,  -3256,   9452,  -6936,   2225,   -694,    459,  -3075,   9089,  -5599,  10591,  -6361,   7360,  -1913,   -136,  -1964,   9123,  -8311,   9650,  -7774,   5953,     83,   2537,    590,   4405,  -3293,   8598,  -2959,   2296,  -1611,  -2786,  -3774,  12986,  -9275,  13749,  -6817,   7985,   -226,  -2814,  -2349,   1547,   2466,   1591,     43,  -2803,    926,  -1202,  -1502,  -1770,   1933,  -1669,  -1028,   1248,  -2076,   1768,  -6387,  11306,  -8288,  10888,  -9492,   6584,     -5,    651,  -3691,  11701,  -8159,  14268,  -7119,  11277,    819,  -1940,  -2263,  -2498,  -1358,   -788,   2058,  -2470,  -1403,   1452,  -2863,   5674,  -7534,  11002,  -6322,   7232,   1261,   1116,  -2193,   5250,  -4303,  11917,  -8523,   5719,  -2054,   -939,  -5112,   6914,  -8526,   6999,  -7652,   4191,   2466,  -3285,  -5782,   8762,  -7687,   6865,  -8538,   5466,  -2391,    982,  -4908,   8567,  -7424,   8319,  -5986,   5527,    894,   -743,   1495,   -300,  -1878,    123,   1600,   2160,   -519,
         -2801,  -2798,   7082, -10427,  16132, -13557,   7869,    350,  -1335,   2623,  -2784,  -2711,   -852,     66,   1462,   -609,  -1721,  -4219,   4797,  -9854,  10935,  -6535,   4884,   2092,   -554,  -1336,    486,    183,    173,  -1571,    750,    756,   -575,   1955,  -1770,   -796,  -1842,   -153,    717,  -2181,   -823,    774,   2710,  -2660,   1838,  -1896,   2014,  -1179,  -1009,  -4453,   6704,  -6637,  10891,  -7350,   7049,   2488,  -1133,  -2927,   6045,  -9141,  10184, -11521,   3866,  -2330,   -862,  -5958,  14358,  -7801,  12641,  -8620,   9525,    945,  -1184,  -4108,   3746,  -8682,   6808,  -7014,   7003,  -2152,   1206,  -6883,   5309,  -7754,  11851,  -8803,   5526,   1292,   2543,  -6472,   9589,  -8563,  14045,  -8921,   7528,   2317,  -2460,  -1695,   8368,  -1465,  10661,  -4490,   6614,  -2106,    931,   2192,   2441,  -2218,  -2020,  -1055,  -2182,    979,  -2758,   2565,   2502,   3331,   2022,   3200,   2480,    606,  -2912,  -2395,  -1860,   1549,  -2190,   1892,   -852,   -765,  -2124,  -3282,   4706,  -4836,   9267,  -1363,   6656,   -414,  -2147,  -2139,    258,  -1162,   -662,    230,   1191,   -762,   1757,  -5746,   7722,  -6635,  11068,  -9494,   3896,  -1941,  -2485,      1,   7717,  -7805,  12304,  -8222,   5134,   1621,  -2807,   1447,   5308,  -5778,   7062,  -4421,   5461,  -1043,   2191,   -401,  -1612,    452,    747,    -85,   -656,   2827,   -531,  -6670,  14305,  -7163,  12015,  -5802,  10998,   1035,  -1800,  -6775,   8979,  -5422,  10325,  -5286,   9231,    938,   -261,   3821,  -1653,   4284,   -978,   4678,   1471,    372,  -1407,   -846,   3326,  -6850,   9007,  -5943,   4540,   1617,    784,  -4182,  12831,  -8587,  11499,  -9972,   7657,   -449,  -1625,  -3666,   7607,  -8218,  10099,  -4363,   6343,  -2091,   -313,  -2815,  10626,  -5902,  14027, -12110,   3985,   2249,  -2985,  -1012,   4758,  -4447,   7014,  -5778,   2449,    389,    555,    296,   2159,   1382,  -1608,   2568,   2071,    857,  -2758,  -4413,   2368,  -4160,   7138,  -4668,   1296,  -2788,   -255,   1202,   2920,   3275,   3999,   -697,   2341,  -1497,  -1256,   2044,  -2714,   -152,   2666,    443,    904,   -777,   1306,   1369,   2877,   -619,   1064,    606,  -2306,    828,   2196,  -1215,     70,    -64,  -1997,    148,  -2156,  -2418,   1481,  -4739,  11044,  -7309,   9869,  -8131,   7859,   1301,  -1507,  -2229,   6302,  -9714,  12478,  -6069,   7586,    780,   1621,   2391,  -2385,    722,   2197,   -722,   2676,  -2235,   1628,  -6718,  11529,  -5493,  16866,  -9694,  14236,  -1790,   2353,   -211,  -1905,   1581,   -787,   -278,  -2575,  -1667,   1957,  -5218,  11515,  -2215,   9812,  -5529,   6836,    818,   -952,     76,  11104,  -6109,  12841,  -5239,  11494,   1427,   2502,   1643,   2712,  -2323,   -497,   1927,    178,   2047,   1704,   3543,   3995,   2087,   -704,   2267,    890,  -1529,   1447,  -4224,  11500,  -9344,  11957, -10951,  10818,  -1389,    147,    465,   2944,  -5192,   4828,  -6018,    255,  -3097,  -1572,   2204,  -2221,   1728,   2716,    491,  -2609,   2024,    550,  -2843,   9128,  -8635,  11655,  -5254,   8781,  -2108,  -2785,  -3752,   8292, -10926,  13608,  -7872,   7754,   1208,    618,   1888,   -743,   2436,   1358,   1519,   1169,   -275,  -3049,  -3703,   7824,  -4740,   8246,  -7130,   3425,   1653,    477,  -4391,   9160, -10734,  12448,  -9094,   7864,     -2,   -547,  -7700,  11911, -10286,  13849, -10414,  11967,   2081,    327,   -738,   2679,   2548,   -356,  -1073,   -392,   1281,  -2686,    362,    786,  -1504,  -2519,    442,  -1197,   -895,   -157,  -3778,  10091, -10071,  12433,  -6466,   6525,   1194,   1894,  -5263,   5371,  -7302,  12249,  -6835,   6930,   1718,   1604,  -2487,   2406,   1644,   2548,  -2042,    669,    953,   -868,   -463,  -2374,    410,   -210,   -211,  -1999,   -589,  -1747,   1609,   1814,  -2294,   1466,    225,    365,    247,  -1477,  -3600,   8359, -10722,  12128,  -9485,   9832,  -1349,    828,  -3739,   9779,  -6002,  10868,  -5947,   5396,   1241,     74,   -229,   2814,   2637,  -2050,   -444,   2695,   2124,
         10836,   7654,   8087,   2227,  -2292,   6801,   9650,   5647,   7558,   2861,   5127,   1064,   1919,   7028,   5119,   3151,   5038,   6495,   6071,  -2562,  -2139,   6688,   7911,   6888,  -2021,     10,   -730,  -2529,  -2208,  -1535,   1548,   1634,   2762,  -1021,    813,   2600,   2542,   1617,   -111,     -8,   5662,   2636,   4386,   1670,    -55,   6390,   6459,   7476,  12036,   7347,  12770,  -1120,  -1867,  10773,   9759,  12106,   8264,   6432,   8009,    215,   1523,   5590,   8483,   7731,   8723,   7567,   8891,   -276,    363,   6671,   7076,   6848,   4020,   3108,   4726,  -2918,   2659,    -87,   4676,     46,   3896,   2484,   2608,  -1203,   1189,   4734,   7741,   4452,   9464,   9519,   9790,   2446,  -1553,   7348,  11050,   8877,   5823,   5063,   4301,  -1254,    778,   4927,   9379,   6523,  -1260,   2742,  -2676,   -801,   1241,  -1790,  -2105,    827,   -704,   1811,    624,  -1595,   -587,   1808,   1539,   -269,  -1369,  -1440,   1438,  -1064,   2769,   -264,   2407,  -2466,    682,  -1253,   2382,  -2120,  -1526,   2213,  -2150,  -1527,  -2598,   -291,  -1612,   -828,   -169,  -1788,   -719,   2705,      4,   1930,   1365,   1572,   2542,  -1896,  -2577,    888,   2628,    -29,  -1133,   -535,   1128,   -215,    454,    299,   2469,   5942,   3787,  -1280,   1228,   3877,   7381,   6567,   6266,   4623,   5793,   1132,  -1318,   4241,   2784,   4835,  -2545,   2021,  -1509,   1045,    198,   -652,   1515,   -698,   5010,   2204,   4297,   -175,   1687,   5389,   6894,   5208,   6578,   6480,   7032,  -1331,     29,   8153,   8156,   8244,   2340,   5861,   3704,   1175,   -354,   5140,   5558,   6414,  -2244,   2002,   1500,  -1211,   -365,  -1921,    304,   1821,  -1418,    902,  -2656,    146,  -2735,    807,  -2569,   -846,   4450,   3206,    691,   -877,    370,   5186,   1599,    901,   5386,   4937,   2006,   -584,  -2865,   4782,   7889,   5853,   9467,   3418,   8080,   2441,   -745,   2976,   5969,   8129,   5977,   7319,   7868,  -2851,  -2382,   2761,   6892,   2357,  -2563,   2029,  -1779,   2826,  -1092,  -1008,    378,   -499,   4272,   3946,   4321,   -667,   2206,   5865,   7351,   4761,  -1497,   1930,   2390,  -2024,   2441,   2225,   2763,    870,     20,   -602,  -2294,  -1755,   1486,  -2365,  -2200,  -2554,   7786,   4076,   7763,   2540,   2505,   3100,   9869,   8426,    400,   3612,   1799,    135,  -2942,   3086,   4200,   5062,   1924,   2138,    683,   1007,    388,  -2021,   1248,  -1724,   3150,   2323,   4491,  -1368,  -2426,   5827,   3345,   1238,  -1712,   -849,    921,  -1277,  -2376,   1808,   -655,    922,   3322,   5762,   2533,   2606,    427,   4868,   5554,   5505,   1579,   4440,   6304,   -257,   1552,   1586,   7162,    993,   4148,   5805,   7093,  -2276,  -2158,   6027,   7655,   5474,   1519,    930,  -2684,    326,  -1424,  -2427,   -359,  -1294,   3382,   5110,   7346,  -3137,   -868,   4745,   6572,   4634,   5710,   2423,   6950,  -1694,  -2320,   6248,   7136,   4618,   6369,   3389,   7836,    770,   -848,   2268,   8538,   6104,   3144,   2221,   5551,   2254,   1706,   5506,   5948,   1974,   6939,   7329,   3550,  -1800,  -1582,   4826,   4644,   5627,   6283,   7037,   8193,  -1565,   -783,   9271,   9053,   4952,   3600,   1918,   4563,   2091,   2118,   1682,   1923,   3377,   8249,   8484,   7613,  -1017,  -1282,   5151,   8201,   9454,   2427,    -70,  -2539,   1550,  -1137,   2159,   2126,  -2890,   2435,  -2047,   3046,    -78,   2111,   2014,   1247,   -983,   5950,   8254,   9793,    776,    183,   6966,   6506,   9969,   6832,   7847,   7997,   -641,   -782,   5785,  11193,   9601,   -932,   -846,   -161,     46,    266,   -655,   2408,   1402,   1581,   1921,   1930,  -2779,   -399,   4438,   7280,   1152,   7502,   3696,   4868,   2575,   1831,   6546,   6357,   1747,   2092,   3329,   2340,   1329,   2622,   3896,   3553,   6659,   2679,   3486,   4953,  -1632,  -2436,   5555,   2547,   4272,   3064,   4484,   6717,   -595,   1111,   2412,   7125,   2648,    480,     -2,   -963,   -233,  -1127,   1722,  -2222,   2525,
          7870,   3375,   3741,    489,   1701,   6748,   8806,   5379,    860,  -1424,  -1002,   -476,  -2425,    636,  -2894,    -90,   7587,   1967,   5771,   1577,  -1927,   5313,   8972,   2375,   1742,  -2799,   2132,   -322,  -1307,   -248,   2661,   2410,    309,  -1786,  -2292,   2323,  -1451,    284,    604,   2495,   2212,  -1305,   1190,   2022,  -1124,   2815,   1842,   -768,   7232,   5898,   6495,  -1858,   2306,   3877,   5037,   2634,   7635,   2677,   4196,   1776,    600,   6258,   4743,   4693,  12067,   9566,  12185,   1723,  -1168,   8915,   9029,   9193,   4953,   4417,   5561,  -2667,   1434,   3592,   3514,   2591,   4917,   4634,   2900,  -1634,   1891,   2949,   8144,   5634,   7602,   6679,   6777,   2193,   -599,   9025,  10301,   6910,   4823,   5770,   4816,    618,  -2945,   6358,   4509,   4549,  -1230,  -1112,  -1197,   -849,    359,  -2554,  -2311,  -1999,   1891,    882,   -799,   -532,   -996,  -1448,   3077,   3474,   2624,  -1896,  -1449,   -491,   -447,   1275,  -2135,    864,   3929,   5518,   7456,  -2490,    875,   5170,   3110,   2347,   1380,     10,   2305,  -2599,   1708,   1999,  -1150,   1526,   1219,   4178,   2951,    169,  -2858,    624,   7349,   4777,   7576,   3250,   8232,    782,   1291,   6433,   6236,   6037,   2420,   4080,   1124,  -2821,   1104,   2672,   3029,   1188,   1539,   1984,   2296,   1780,  -1143,    -68,    943,   1520,  14078,   8527,  12131,   2412,  -2397,  12389,  14068,   9567,   9888,   7456,   6531,  -1956,   -172,   5953,   5739,   6369,   2736,   2121,   -734,  -1153,    894,  -2556,    403,    490,   5813,   3300,   3846,    736,    516,   3959,   5472,   1382,   9691,   8534,  10214,   -820,  -2051,   3972,  11861,   6375,   4989,   1323,   4010,    253,  -2935,   2154,   5468,   5870,   8441,   2945,   7067,   2040,   2262,   5702,   9737,   2626,   5101,   5394,   2275,   2379,  -1168,   2162,   2958,   3960,   2050,   2469,   -421,  -2851,   -372,  -1076,  -1859,  -1140,   6456,   3780,   6408,   1716,  -2086,   5030,   5479,   2771,   4319,   4516,   -203,  -2599,      2,   2158,   3082,   4536,    699,   1807,    559,   2863,  -1879,    946,   1619,    115,  -2692,  -2569,  -2557,    681,   -715,   1071,  -2391,   -457,  -1011,  -2277,  -2060,  -2621,  -2071,    840,   -427,    601,   9602,   3413,   5242,   2474,  -2892,   3124,   9496,   8548,   6117,   2027,   4118,   1667,  -2151,   2098,   6464,   4232,  -1448,   -701,  -2142,   -799,    382,    648,   2405,   1259,  10597,  10231,  11627,   1204,   1601,  11842,  11450,  11995,  -1003,  -2513,   -175,     21,  -1560,   2868,   2743,   2495,   9285,   8864,   9883,   1331,  -2895,   7515,   9945,  11001,   7591,   4587,   9764,    324,  -1018,   8327,  12300,   4421,  -1288,   1288,   1141,   2091,  -2103,    302,    953,   -154,   -740,   2950,    465,   1482,   -513,   3467,   3085,  -1625,  10738,   5155,   7872,   1480,  -2107,   4824,   9588,   7624,   4304,   3459,   5232,  -2896,  -2829,   1602,    852,   3614,      3,   2220,  -2612,   1312,   1446,   2302,   2614,  -2845,   7948,   3038,   6910,   1094,   2755,   4829,   5707,   7973,   6542,   4562,   3674,   1913,    512,   5276,   6442,   5355,  -1774,   1752,    561,   2170,   -767,     45,  -2380,   2420,   2376,   2261,   3253,    174,  -1731,   2932,   5879,   3715,   5454,   4531,   8000,    503,   -666,   6974,   7644,   2717,   9687,  10926,  10374,   -260,  -1124,  10399,  12533,  10541,   2300,   1796,   1529,   1871,    476,   -949,   1022,  -1307,    766,  -1852,   -807,    800,   1431,  -1385,   -947,   1278,   5338,   4370,   6277,    -87,   2559,   7552,   8020,   4823,   4286,   5041,   7085,    309,    -70,   6954,   7456,   6319,    870,  -1733,  -1959,    273,  -2870,   1909,   2422,   1757,  -2777,   1539,    371,   1643,   1301,   2302,   2260,  -2148,   -343,    439,   2741,   1758,   1935,  -1270,    840,  -1055,   9743,  10704,   8874,  -2642,   2697,   6263,  10610,  11051,   4471,   6071,   3178,   1176,   2448,   6911,   7119,   5072,   1449,   1329,  -2524,   2023,   -383,   1910,  -2468,     27,
         -7864,   1023,  10464,   -430,  -8666, -10870,   4496,   1627, -10339,    616,   4405,   1084,  -5871,  -8709,   4068,   -871,  -4802,   1399,   6466,  -1832,  -6040, -10036,   6321,   2268,   1840,   1400,   1797,   -386,   1735,  -1034,  -1076,   -245,   1261,   -857,  -1391,  -1098,  -1968,   -432,   1767,   1776,  -8751,  -2045,   4791,   1740,  -7551,  -6364,   6407,   1872, -13141,  -2774,   7107,   1465, -11872, -10939,   8187,  -1486,  -9033,   2776,   4512,   2365,  -7471,  -7315,   7278,  -2194, -10760,   -867,   6046,   -698, -12464, -12954,   7815,   1610,  -7895,   2752,    151,  -2045,  -9534,  -6476,   3375,   2230,  -4931,   1191,   3883,  -2619,  -7954,  -8280,   4823,  -1331,  -8530,  -1575,   7512,  -2012,  -7752,  -9987,   6562,    695,  -6338,  -2567,   2891,   -480,  -4561,  -7504,   5529,   1243,    746,  -2489,   2573,    356,   1615,   2865,   2372,  -2455,  -1704,  -2386,   2501,   1486,  -2038,   1316,  -1040,  -2204,    487,   -390,   -777,  -2271,   1474,   1363,   -621,  -2357,  -2017,   -942,   -112,   1007,   -990,   -408,   1926,   1338,  -1602,   1889,  -1502,  -2279,   1096,   -600,    575,   -148,  -1613,    141,   2207,  -1562,    -48,  -1150,   -263,   1070,   2319,  -1945,  -2424,  -2601,  -1300,    995,   -545,    426,  -7168,  -2630,   3948,   1766,  -7565,  -8328,   4868,  -3228,  -7777,   1253,   5662,   -584,  -4315,  -7384,   4661,  -2263,   2850,  -2400,  -1781,   -859,  -2882,   2160,   1151,      7,  -6536,  -2047,   7116,  -1513, -10643,  -8347,   1166,   1516,  -5197,   1028,   4220,    896,  -4679,  -7400,   3237,    871,  -4071,  -2024,   5944,  -1532,  -6833,  -5285,   4975,   1402,  -2046,   1931,   -393,   1262,   -516,  -1378,   1653,  -1478,   1183,   2423,  -1842,  -2316,    362,   2417,    825,     73,  -6042,     25,   2356,    577,  -6003,  -1467,   3742,    865,  -4453,  -1382,   3936,   -415,  -9544,  -4854,   4618,   -616,  -6139,  -1048,   5085,   1083, -11266,  -7083,   2361,    985,  -4239,  -1831,   7894,   2451,  -7946,  -4910,   5893,  -2070,  -1076,   1386,     54,    120,    592,   2158,   1124,   2124,  -9362,   -991,   4060,    819, -10131,  -7822,   6410,    289,   1987,    -44,   1393,   2466,    565,  -1205,    575,   1149,  -2814,  -1273,    259,   -574,   1376,  -2887,    223,  -1690,  -9126,  -2789,   8165,  -2361,  -6440,  -9562,   5735,  -2839,  -4114,   -608,   4473,    354,  -1893,  -3061,   4430,  -2025,  -1703,  -2253,  -2429,  -1347,   -929,     67,  -2299,   -791,  -3381,    420,   5005,    -79,  -4086,  -2224,   5636,  -1625,    851,    449,   1456,  -2480,  -1504,  -1534,    347,  -1003,  -7285,   1478,   6425,   2427,  -9109,  -9757,   5332,  -2170,  -6391,   2279,   6193,    642,  -8976,  -6207,   2677,    898,  -6462,   2129,   7297,    363,  -5648,  -5141,   6553,    296,   2731,  -1745,    106,   1627,   1639,    292,  -2780,   -517,  -8941,    934,   5891,  -2346,  -6236,  -5543,   5508,  -1464,  -3839,   -113,   3715,   1995,  -7136,  -4989,   5582,  -1119,  -9079,  -1157,   4940,   1836,  -7033,  -8290,   3879,   -908,  -4910,   1475,   2887,   -444,  -8358,  -5302,   6597,   -646,  -9426,   -951,   3886,    -49,  -6887,  -5424,   6702,  -1920,  -5540,    375,  10299,   -365,  -8800,  -6508,   5730,  -1825,   -420,  -2879,   1437,   2582,  -4079,  -3818,   2719,  -3137,  -8491,  -2394,   8009,  -3060,  -8831,  -9759,  10504,   2258,  -2060,   2374,   -166,  -2461,   -538,  -2833,  -2411,   2087,   -877,   2842,  -1626,   -647,   1394,  -2007,   -773,   -557,  -8966,  -2063,  10388,  -1668, -11900,  -9004,   6366,  -2301, -10560,   1983,   7325,  -2778, -12326,  -9451,   5800,  -1602,   2389,   2180,   2794,  -1974,   2849,   2212,   1763,  -2459,  -7694,  -2362,   6230,  -1525,  -7169,  -4922,   2058,   1045,  -6015,    711,   2686,   -709,  -8521,  -6051,   1237,  -1024,  -4854,  -1206,   7590,   -281,  -6540,  -8880,   6749,   -880,  -7935,   1285,   5139,  -3020,  -4540,  -7775,   2451,   2328,  -5471,    683,   3489,   2253,  -4006,  -7360,   4967,   -202,  -1939,   2634,  -1624,   1458,   2156,  -2886,  -1568,    133,
         -9089,  -2493,   6082,   2592,  -8355,  -9994,   3162,   1912,  -2372,  -1151,   2581,   2157,  -2836,  -2062,  -1726,  -1354,  -5126,   2673,   4892,   2782, -10487,  -9188,   5874,   1065,  -2312,  -1092,  -1693,  -1075,   1704,  -2211,   -167,   2662,   -773,    454,   3015,  -2450,    273,    319,  -1670,   1348,   1436,  -1702,      4,   2528,  -1085,   1406,  -1039,   2143,  -9027,  -1614,   6314,   -567,  -6773,  -5202,   1166,   1598, -12745,   1912,   5954,   -529, -12129, -10768,   2139,  -1989,  -5017,   -108,   9135,    800,  -6897,  -7149,  10043,  -1372,  -5229,  -2301,   5929,  -1651,  -9340,  -9895,   4165,   2335, -11138,   -158,   4855,  -2215, -10057,  -6613,   7066,   -575, -10364,   2253,   5790,   1789,  -6794, -11309,   6006,  -2844,  -2439,  -1650,   5844,  -1149,  -4551,  -5460,   4765,   1614,  -2875,   2188,   1520,   2745,   2324,    370,  -1255,     83,   3362,    561,  -1299,   -551,   4895,   4228,   2080,   1970,  -2246,   1265,   2664,  -1426,   2376,  -1549,  -2145,  -3137,  -5228,   -752,   2392,   2077,  -4851,  -1777,   3243,  -1634,    919,  -1881,   1541,    598,    546,  -1582,   -890,   2556,  -8507,   -329,   5213,   -874,  -7015,  -6472,   5796,   1051, -10059,  -1412,   6692,  -1645,  -8132, -10323,   3800,   1914,  -2992,  -1679,   1929,   1490,  -5251,  -7262,   2675,   1144,   2100,   -971,   1688,    -33,   1059,   1229,  -1645,   1889,  -6658,   -723,  11142,  -2329,  -7525, -10333,  10226,  -1298,  -4684,   -784,   9403,   2723,  -7208,  -3393,   8065,   -761,   6339,  -1549,  -1742,   -622,   8425,   7639,  -2039,  -2087,  -2862,  -2803,   5196,   -658,  -6545,  -5053,   1645,    572,  -8309,   2660,   6863,   1390, -12114,  -7732,   8045,  -1427,  -6712,  -1784,   4110,  -1545,  -4055,  -8597,    834,    304, -11058,      3,   3122,  -2015,  -7785, -11781,   2554,   1423,  -5863,   1786,   3556,    743,  -4196,  -2161,   4151,   -132,   2633,  -2847,   1774,   2162,   1289,    290,   1296,  -1470,  -6970,  -2106,   4094,    832,  -1438,  -2935,   4535,   1661,    157,    886,   1722,   1410,  -1144,  -1622,   4375,  -2111,   1930,    484,  -1894,   1596,    257,  -2196,   2340,   -387,   -286,  -2532,  -1445,  -1470,   2287,  -1867,   -404,   2013,  -2807,  -1111,  -2723,  -2876,  -1148,   -645,  -2750,  -2217,  -9947,   -144,   6549,  -2467,  -6761, -11197,   5481,   -316,  -8270,    825,   6530,   -523, -11520, -10911,   1824,   2292,   1629,   2371,   2074,   1983,   -726,    973,   1825,    347,  -9182,   1887,  10533,   2397, -12124,  -7262,  13122,   1662,   -639,    109,   -750,    517,  -2476,   -431,  -1699,   1729,  -6882,  -1732,   6808,   -858,  -2826,  -3600,   6213,   -773,  -4429,  -1636,   8827,  -1133,  -4075,  -7173,   8441,  -1520,   -314,    684,  -2033,   2350,   2694,   -240,  -1195,   1942,   5503,   2142,   -755,  -2795,   1347,   1183,   1996,  -1611,  -8485,   -176,   7387,    195,  -6329,  -7502,   4694,  -3041,  -7947,   1175,    160,  -1407,  -8481,  -8754,   3057,  -1511,   -313,   2076,  -2662,   1617,  -1682,   2351,   -859,   1193,  -6526,    627,   8340,   1276,  -6980,  -6086,   2959,  -2121, -10842,   1414,   3599,    -57, -10875, -11926,   3782,  -3165,   2189,   2446,  -2812,  -2733,   1817,  -1104,   1023,   -818,  -7384,   -758,   5652,  -1740,  -5304,  -2871,   3545,  -2943, -10475,    -92,   2579,  -2782, -10857,  -8801,   6308,     19,  -6467,  -2608,  11237,   -639,  -9447,  -6457,   7621,  -1548,   1219,   -387,   1983,     98,   1401,  -2497,  -1752,  -2228,   -408,   1599,  -1934,    662,   2383,    261,     65,   2346,  -7225,    972,   5559,  -1124,  -9545,  -9165,   4538,   -461,  -4872,   1635,   2358,    281,  -5411,  -8766,   3770,  -2587,   2572,  -1633,  -2498,   -522,   1155,    325,   -790,   -949,   1028,  -1669,    166,    221,  -2473,    829,    -34,   2005,   -692,  -1708,    828,   1190,    614,    -50,    540,   1412, -11443,  -2292,   8618,    466, -12488, -13608,  10200,  -2480, -10505,   -946,   3861,  -1740,  -9885,  -6017,   7846,   1358,    -17,  -2004,    114,   -869,  -2093,    318,   2878,    267,
           244,   2388, -11723,  13134,   1245, -12487, -13277, -11920,  -1698,  -1730,  -8962,   9603,    926, -10521,  -8680,  -8575,     16,  -2681,  -8631,   8428,  -1982,  -9629,  -5947,  -7243,    255,   1053,   1618,  -2802,  -2285,   2612,    109,   2161,   -431,    982,  -2516,     96,    213,   2676,   1256,  -2137,  -2302,   2376,  -9290,   5232,   -348,  -5993,  -7877,  -6380,   -895,  -2116, -11482,  13493,  -1345, -10314, -10432, -13120,  -2196,   1411,  -6772,   8040,    950,  -9243,  -5568,  -7807,  -1915,   1687, -11169,   8890,  -1836, -14191, -10987, -12612,  -2456,   1273,  -7125,   7098,   1596,  -5012, -10194,  -3473,   2630,   1879,  -6220,   8560,   1461,  -6344,  -3827,  -6756,   -805,    677,  -8722,  13971,  -2939, -11381,  -9734, -10728,    532,  -1716,  -5928,   7373,  -2865,  -4154,  -8565,  -8562,  -1402,   2375,  -1018,   1037,   1151,   2782,  -1785,   1154,   -962,    985,     98,   1845,    920,  -1401,   1739,   1189,    246,  -2482,  -2098,  -2547,   1405,   -346,   1425,   -927,   1078,  -1158,   2033,    405,    744,  -1226,  -2454,  -1920,   1484,   1695,  -2236,   2024,  -1124,  -1698,  -1402,  -1038,  -2497,    549,  -2641,   1698,   1549,   2236,  -1361,   -500,  -1244,  -2744,  -2298,   -146,  -2077,    919,   2662,   2811,  -2396,  -1172,  -3235,   5280,  -1578,  -6402,  -6016,  -5211,  -1394,   -663,  -5300,   5670,   1601,  -7614,  -3252,  -7655,    270,   2133,   1099,   -844,   1412,  -1218,   1573,   1629,  -2460,   -633, -10577,   9871,   1273,  -7328,  -9430, -10302,  -1812,  -2926,  -7578,   6736,   2040,  -5317,  -5354,  -8905,  -1153,    126,  -5483,   2745,  -2375,  -5382,  -6872,  -6077,    401,  -2131,  -2523,   -194,   -162,  -1825,   1445,  -1360,  -1665,   1411,   2197,   1893,  -1098,   1451,   1039,  -2814,   2106,  -2999,  -2217,   6642,   -251,  -6276,   -945,  -7260,   -234,   1852,  -9304,   3376,  -1389,  -5605,  -4679,  -9569,  -2714,   -824,  -8756,   7046,   -787, -10046,  -7598, -10428,   1067,    448,  -8957,   8787,   2083,  -9071,  -7972,  -9281,   -604,  -1534,  -2555,   -775,   1157,    852,  -1493,  -1790,  -2198,   2139,  -7811,   6641,   2168,  -8232,  -8909,  -9903,   1936,   1222,   2665,    829,   1013,   1600,  -2450,   -107,   2000,   1027,  -1972,   1158,    -30,   -556,  -2003,   2024,   -365,  -2292, -11003,   6838,   1821,  -9907,  -7392, -11316,   -468,   1313,  -1272,   4058,   -101,   -919,   -701,  -2291,  -2587,  -1411,  -2630,   -195,   -988,   2296,   -827,  -2511,   2862,    351,  -5121,   5062,   -269,  -6959,  -6317,  -1611,  -2872,  -1583,   1325,  -1659,   1666,   -134,   -560,   2888,     67,  -2473,  -9118,   6415,   1452,  -9250,  -5687,  -6713,   -824,    807,  -7512,   8474,  -1762,  -5007,  -7811,  -9220,  -2029,  -1956,  -8021,   9103,  -1841,  -7411,  -3739,  -8204,   2325,  -1225,  -1989,   2276,   -284,  -1916,   -666,  -2189,    170,  -3035,  -8577,   5854,   1440,  -9177,  -1948,  -7678,   1283,   -159,  -8880,   4701,   2214,  -6414,  -7035,  -9286,   2292,    690,  -8206,   8984,   2432,  -9918, -11280, -11289,  -1753,    950,  -6381,   7239,  -1214,  -6385,  -4392,  -7138,   1768,  -1501,  -5854,   9431,    -72,  -8791,  -3175,  -5938,  -2270,  -2267,  -7264,  11916,   2663,  -5804,  -9547,  -7095,  -2475,    123,    666,   4985,   1292,  -1060,  -2978,   -246,  -1487,    -47,  -8361,   8554,   -138, -10349,  -9305,  -6796,    181,  -2254,    312,   2790,    222,   1034,   1543,  -2807,   2694,  -1221,    534,   2416,  -1594,  -2322,  -1482,   2661,   2509,  -3173, -12232,   9282,  -2131,  -6805, -11398,  -8003,   1082,   -715,  -9975,  10768,   2166, -11633, -11178,  -7386,   2675,  -2868,   1964,     57,   -247,  -1912,  -1206,   2439,  -2725,   -102,  -6860,   4410,   -285,  -3655,  -4131,  -4962,  -1058,    262,  -5614,   4488,   -499,  -9086,  -6033,  -8924,  -2171,   1114,  -9803,   6392,   -849,  -9330,  -3732,  -8685,   2279,   1732,  -6108,   8705,    496, -10071,  -5860,  -8695,   -444,  -2906,  -7817,   5276,  -1090,  -3360,  -3288,  -6602,  -2293,   2324,  -1048,  -1682,   1121,  -2238,   -544,   2242,
          1116,  -1156, -12319,   9740,    -92, -10522, -12339,  -8930,   1158,  -1099,    687,   2683,  -1760,   1959,  -1070,   2554,  -2636,   2108,  -7234,   5271,  -1834,  -9905,  -3615,  -8431,   2395,   2378,  -1609,     49,    585,    624,    715,    -15,     13,  -1682,  -2502,   -782,    794,   1735,  -1800,   -841,   1686,  -1412,    -53,   2851,  -2691,  -2207,  -1105,  -2252,   2624,  -2540,  -8055,   8398,   -331,  -8483,  -6514,  -8419,  -2288,  -1473,  -9381,   6078,    591, -10077, -13410,  -7057,    414,   1612,  -8369,  14152,  -1441,  -9423,  -7162,  -7251,  -1572,    522,  -5479,   7883,  -2318,  -5857,  -8452,  -5053,   2602,  -1371, -10063,   9838,  -2555,  -6485,  -6523,  -7160,     70,   -906,  -6641,   8533,  -1621,  -9021,  -8181,  -5796,  -2116,   -676,  -1875,   8377,  -2019,  -2584,  -1462,  -2533,  -1378,    992,   1816,  -1254,  -1254,   1342,    203,  -2770,  -2869,   1312,   3182,   4257,  -1029,    -23,   1351,    681,   1457,  -2432,   2519,    231,  -2218,   1735,  -2746,  -1049,    808,    104,  -1671,   5293,   1181,   -658,  -1438,  -2122,   -950,  -2062,  -1414,  -2842,    767,    -33,   1008,   2482,   2674,  -2544,  -6956,   7293,    194,  -6436,  -5236,  -5487,   -672,   -515, -10150,   7877,   1331,  -7598, -10895,  -5134,   1763,   1322,  -6245,   7355,    332,  -3510,  -5598,  -2614,  -1185,  -1469,  -1426,    818,  -1456,   1496,  -1904,   -480,  -1281,   -530, -11688,  13629,    844, -10366,  -9967,  -7132,  -1681,   1206,  -5398,  11352,  -2675,  -3394,  -5908,  -3603,  -2087,  -1309,   6191,   2821,  -1948,   7510,   6860,   6338,   1225,   1950,  -4284,   7243,  -2173,  -8383,  -1176,  -5090,  -1185,   1808, -11587,  12443,   1324, -11290, -12619, -10883,    222,  -1210,  -2866,   4273,   -743,  -5874,  -2416,  -7343,   1164,   2106,  -9283,  11515,   2217, -10192, -12436,  -6464,  -2345,    630,  -2176,   3143,  -2724,  -5259,  -1404,  -3520,   1623,   -564,  -1479,  -1849,   2117,   -473,  -2712,   -709,  -1419,   -350,  -5084,   3758,   1770,  -3734,  -1170,  -2354,  -2753,   -976,   2309,   2116,   1732,   1536,    456,  -2407,  -2481,   2018,   1633,   1442,   2736,   1953,  -1484,    474,  -2597,  -1296,   1196,  -2039,  -2737,  -2726,  -1631,   1364,  -2772,   2711,   1732,  -1232,    894,   1039,  -1318,   2184,  -2414,  -1891,  -6700,   7492,   2391, -10129, -10201,  -7125,   2396,   2078,  -9498,   8390,    123,  -9410,  -7720,  -6814,    525,  -2234,    197,   -870,   -611,  -1382,   1069,   2532,    643,   -848,  -7418,  15586,  -2348, -12246, -10847, -10318,   -940,   2261,  -2178,  -2085,  -2476,    766,   2235,   2523,  -1363,  -2198,  -5715,  10319,   2455,  -3137,  -3131,  -6522,  -1556,   1687,  -7853,   9089,  -1554,  -7251, -11236,  -6330,   1060,  -2346,   2363,    995,   1675,    641,  -1500,   1772,    -28,    172,   4459,  -1317,    -21,   3064,   2291,   4072,  -1662,   1334,  -8424,  10048,   2319, -11146, -10270,  -9127,  -2790,   1619,  -4649,   1870,   1874,  -5208,  -6389,  -7696,   2230,     97,   1715,  -1341,  -1624,  -2193,  -2825,    502,  -2765,   1731,  -7888,   6908,   -271,  -6993,  -5867,  -7976,   1145,   1752,  -6113,  10388,   1336, -11514,  -5084,  -9811,   2476,  -1322,    659,   1057,   1182,  -2750,  -2868,  -1293,   1246,  -3063,  -7425,   3136,    556,  -2798,  -1681,  -3638,   1326,   2127,  -9625,   5721,  -1886,  -8474,  -8866,  -9996,    -83,   2593,  -7116,  13878,    235,  -8661, -10805,  -6430,    772,   1012,    589,   2049,  -2325,   1313,  -1694,   -738,    591,   2206,   1053,   1346,  -2354,    299,   2604,   2041,   -841,    653, -11604,   9769,   -525,  -9847,  -8300, -11087,  -1782,   1877,  -9315,   9245,   2217,  -4848,  -7107,  -7845,   1635,   1186,   1745,   1552,   -646,  -1009,   2115,  -2066,  -2289,    955,   -377,    663,   -337,  -1291,  -2364,   1505,    844,    616,   -544,   -847,   1057,   2602,    131,  -1897,    907,   -918, -12655,  12389,   1309,  -7911,  -6583,  -8005,   1775,   -172, -10493,   7222,   2649,  -5855,  -2949,  -7235,  -2623,   -867,   -864,    139,    981,   1601,   1515,  -2471,
          5079,  -1513,   8180,  -1158,  -2304,   -471,  12574,   9397,   2067,   1170,   2796,   2318,   1437,  -1013,   7074,   2729,   3884,   -326,   2504,    726,   1045,  -1066,   8698,   7254,   1586,  -1452,   -982,   1010,   1358,  -1004,    177,   2104,    487,  -1528,   -558,  -2826,  -1887,    -63,  -1080,   1109,   7001,   -252,   7866,    669,   -611,    604,  11938,   8735,   8783,   2622,   9417,   -301,  -1292,    372,  12170,   9093,   3847,   -714,   8690,  -2796,  -1438,   -640,   8201,   6609,   3419,    888,   6233,  -1373,  -1294,   1584,  14632,   6015,   4094,   2288,   1270,    319,    938,  -2526,   9260,   2896,   5512,  -1917,   2775,   1777,  -2595,    426,   9440,   2257,   8321,   1272,   9405,   2797,  -2747,  -2148,  13875,   9915,   5749,  -1820,   8375,  -2697,  -1913,  -1244,   8342,   7800,  -1084,   1077,     96,   -846,   1115,   2731,   2475,  -2062,   2502,  -2398,   -886,   1987,   1846,    709,  -1530,   2466,   1690,  -1984,    745,   -494,   2616,   2635,  -1222,  -2373,   1227,   1920,   -801,    673,  -2863,  -2419,  -1716,  -1799,   2581,   2377,    524,   2784,  -1827,    346,  -1389,   1619,  -1842,  -2822,   -925,    624,   2767,  -2364,   1999,   -511,  -2103,   1203,  -2494,    542,   -856,   -619,    713,    522,   3816,  -2105,   5227,  -2656,  -1931,  -2623,   9038,   6277,   5230,  -2952,   6179,   2436,  -2220,  -1104,   5640,   5326,    851,   1147,   1163,   1874,   1714,   -260,   -121,  -1516,   4751,    666,   4124,  -1933,  -1818,    542,   9388,   8173,   6413,   1712,   6346,   -627,   2093,  -1045,   9380,   8027,   3218,    427,   3276,  -3004,    654,    431,   9690,   4668,  -1793,  -1276,    969,  -3068,  -2733,   1180,   1956,  -1342,   1688,   -353,  -1552,    990,   1919,  -1076,   2223,  -2324,   4533,   2448,   1220,  -2588,  -2143,    325,   4782,   4534,   3674,   -277,   2869,   2601,  -2689,     91,   6340,   3562,   6605,   -558,   8070,   1694,   1400,    675,   9722,  10268,   1946,  -1941,   5072,   2419,    746,   -985,  10077,   7895,    117,   2835,    194,  -2012,   -664,  -1379,   -819,   1217,   5345,   -239,   7672,   1726,    239,   1031,   9586,   6563,   1421,   1197,   2050,   1034,  -1930,    -99,    923,    463,   2010,    607,   1562,   2042,    448,   1497,   2872,    786,   3970,  -1796,   4364,    930,   1771,    651,  11384,   3671,   1584,  -3107,   5582,   -419,    342,   1134,   5939,   3222,     87,    169,  -1950,    271,   1168,  -2283,   2627,   1514,   1344,   1081,   6304,   -343,   -636,   -699,   9672,   1404,  -2631,   2379,   -440,    128,    865,  -2578,   2209,  -2590,   3207,  -1276,   6266,  -2741,  -1123,   2692,   9976,   5568,   5890,   -268,   5373,   2506,   1353,  -1747,   6277,   3872,   5368,   1100,   7047,  -1934,  -2674,   1130,   6375,   2339,  -2890,   -841,   2631,   1632,   -719,  -1367,  -1984,   2221,   1719,   1834,   2428,  -1274,   -793,   -144,  10415,   5488,   2293,    367,   6756,    146,   2392,    303,  10296,   7949,   5878,   2397,   7899,  -1868,    838,  -1887,  10027,   7554,   5073,  -1794,   5192,   2677,   1062,  -2586,   9022,   2879,   3125,   2370,   6336,   2847,   -126,   2404,  11289,   3148,   8639,   1039,   7648,   1770,   -568,   2196,  12748,   7385,   1898,    747,   4750,  -2833,   2415,  -1940,   4453,   1989,   5566,     33,   9942,    923,   -462,   -233,  10426,   9946,   -197,  -1861,   2141,   1630,    550,   -261,     42,  -2774,    642,   2479,  -1481,    384,   2806,   1408,   2754,   2861,   4333,   2308,   8122,   2022,    650,  -1952,  13636,   6113,   4524,    866,  10579,  -2384,   -412,  -1115,  14835,  11232,   1501,   -351,   1908,   1077,   2384,  -1074,   1261,   1814,   5476,   2235,   4058,    470,  -2374,  -2882,   6776,   2082,   3256,  -2942,   5699,  -1374,  -2469,    354,   8739,   6592,   1904,   2038,   3926,  -1288,  -1487,  -2457,   5946,   5244,   5598,  -3004,   6470,   -572,   1579,  -1644,  10579,   5582,   4328,   1570,   1874,    681,  -1229,   1425,   8888,   7374,   -429,   2421,    901,  -1850,    -24,  -1485,    219,  -2763,
          3453,  -2967,   7014,   1455,   2377,   -187,  10586,  10359,   1291,   1083,   -606,   -608,   2384,   2800,   1693,   -886,   4570,   1317,   6664,   1836,   -430,   1256,   8617,   7909,   2510,   -949,   -984,   -460,   -353,   2061,   -348,  -1736,    749,    387,  -2003,   2627,  -1863,  -2406,  -2668,  -2449,   2639,  -1823,   2790,  -1836,   2077,  -2651,  -1376,  -2272,   2109,   1908,   2385,   -332,   2814,  -2623,   8939,   5420,   3921,    639,   3891,    929,   1705,  -2488,  13313,   9566,   9508,    -87,   9291,  -1470,  -2843,  -2666,  14318,  11777,   4558,   1038,   2947,   -365,  -2180,    371,   6425,   2752,   5514,  -1108,   8173,   2631,  -1469,   2119,  12046,   8677,   4117,   -917,   5425,  -2753,   -616,   1359,  11676,   5845,   5363,   1329,   2592,    615,   1487,  -1107,   9694,   5133,     65,  -2102,    815,    102,     -2,  -2662,   2633,  -2354,    -76,   -897,   3966,  -1454,   -988,  -2208,    912,    680,    466,  -1145,  -2429,    744,   2228,   -733,   2744,  -2068,   5493,   1221,   4655,  -2352,  -1554,    923,   8489,   5585,   1664,   1417,  -1330,    254,   2656,   2839,   -827,  -1321,   5044,  -1239,   2687,  -1383,   -759,      1,   6918,   2248,   3885,     94,   5892,  -1600,   1196,   1381,  13179,  10807,   5188,   1142,   5368,    -48,  -1749,  -1464,   6558,   1073,   1754,   -492,  -1411,   -686,   1357,  -1946,  -2049,    742,   7412,    155,  12982,  -1441,  -2019,    962,  11286,  12556,   7497,  -1492,   8941,  -2267,   -234,  -2374,  10921,   8914,    960,  -1957,   -959,  -1602,   -881,  -2466,   1766,    925,   4625,  -1978,   3385,    458,  -2029,  -1327,   7317,   5015,   5713,  -2550,   6304,  -1703,   -515,   1832,  11988,  10161,   3300,    411,   6297,   1872,    685,   1967,   4429,   6623,   5660,   2316,   5496,   1371,  -2446,   -467,  12650,   5267,   2569,  -1085,   4042,  -2600,   1495,  -1841,   4099,   4677,  -2245,    964,   2325,  -1984,   -745,    902,   1865,   2668,   4672,  -1127,   5665,     45,   1637,  -2638,   8016,   4883,   2085,   1236,   3851,  -2367,   -394,  -1031,   4732,   2086,  -2609,   2788,   1918,  -1922,   1155,  -2661,  -2067,  -2516,    457,   -353,  -2327,   -852,   2415,    946,  -1932,  -2585,   -973,   2369,   2103,  -1774,   1540,    974,     51,   1574,   7151,    869,   8692,   -138,   2472,   1120,  10492,  10005,   5867,    625,   4053,  -3024,   2188,   -191,  13094,   3973,  -1159,  -2347,   -146,   2319,   -651,   2818,    -99,    750,  12709,   2625,  14614,  -2836,  -2018,    775,  16273,  11900,   1051,  -1393,   -468,   -173,  -2066,   -268,  -2219,  -1634,  10592,   -120,  10397,  -2864,   -145,  -2074,   8044,   9567,   4534,  -1037,   9450,   1952,  -2656,   2443,  10788,  11135,  -1819,   -780,    713,    469,  -1672,   -317,   2534,   -985,   1017,  -3039,  -1045,  -1921,   2094,  -2439,   4128,   -597,   7300,   2239,   6589,    818,   -577,  -1778,  14223,   8929,   -110,  -2010,   5553,   1507,    810,    221,   5445,    603,  -2297,   -720,  -1525,  -1418,      4,  -1681,  -1561,   1392,   4251,   2527,   6876,   2609,   -462,     53,  10485,   5866,   4554,  -2338,   5642,   2273,    649,    986,   8329,   3556,   2134,   2881,   1789,  -2391,   2325,    585,   2234,   -685,   1005,   1744,   6319,   1340,   -792,    100,   6230,   4498,   4734,    235,   6947,   -332,  -1500,   -736,  10764,   7949,   8851,   1763,  11436,  -2639,   -175,   -707,  15714,  14891,  -1390,   1144,    384,   2212,     39,  -1552,   2533,   -910,    255,    907,   -516,    951,   -164,   2895,  -2323,    293,   8667,    764,   9171,   2589,  -2573,  -1457,  12559,   5437,   3435,  -1630,   2877,   -922,  -1533,   -497,  11513,   3163,  -1899,   2146,   1483,    432,  -1159,  -2836,   -465,  -1150,  -2154,  -1127,   -118,  -1053,   -425,   -181,  -1288,  -2074,   2831,  -2312,  -1351,  -2547,  -1472,   1459,    114,   2106,   9712,  -2377,  10148,  -1407,  -1793,   -753,  15406,  10032,   6516,   1291,   6267,  -1797,   1209,    364,   9376,   3330,    950,    469,  -2173,  -1788,  -2249,   2838,    168,   1216,
         -9933,   1854, -10022,  -7199,  10574,  -2255,    971,  -2156,  -5413,    402,  -9258,  -9287,   4000,   1375,    227,   1569,  -7270,  -1978,  -8760,  -5330,   9357,    419,   1255,  -2558,   1947,   1331,   2045,     56,   2137,  -2392,   1637,   -942,    732,   -283,    171,  -1067,   2367,    699,   -206,  -1408,  -8930,   1142,  -5185,  -4575,   8645,   1959,  -1761,   1344, -10916,   1942,  -8974, -13692,  13634,   -502,    873,   1076,  -8408,  -2186,  -4688,  -4620,   4833,  -1658,    809,  -2140, -11698,  -3246, -12656,  -8425,  12212,   2045,  -2367,  -2588,  -4981,  -2544,  -7562,  -3351,   7900,  -1213,    553,  -2103,  -4582,  -1692,  -8638,  -7222,   6179,    256,   1710,   2109,  -6967,  -2412, -11661,  -8316,  12684,  -2677,  -1660,  -2417,  -7488,    355,  -8218,  -6991,   4994,   -466,    423,   -639,    141,    -71,  -2698,   1767,  -2493,   -207,   1989,  -2245,   1523,  -1518,    977,  -2209,    288,    961,  -1723,    628,   -317,  -2295,   2339,   2689,   1405,   2637,  -2685,   -922,  -2704,   1623,    -56,  -1808,   -867,    958,    703,  -3037,  -2081,    159,   2374,  -1991,  -1454,   2679,  -1100,   1668,   1834,   -115,  -1359,   2282,   2160,   2620,  -1955,   1311,    483,   1998,  -2169,   1950,  -1709,   -833,   1386,   1710,  -4037,    572,  -8838,  -7380,   8523,   2298,  -2638,  -1032,  -7115,  -2581,  -7948,  -5710,   3792,   -476,    176,   1376,   2749,   -903,   -766,  -1446,  -1444,  -2294,  -2060,    136,  -9263,  -2029, -10717,  -9918,   9344,  -3233,  -2675,   2234,  -9771,  -2544,  -4704,  -7597,   7651,    765,   1704,   2105,  -4652,    787,  -4654,  -4804,   3791,    398,     41,  -2067,   1911,  -1406,   -437,   1522,  -2078,   -440,   1519,  -2570,    283,   1522,   -284,    967,   2188,  -1546,   -747,    832,  -3830,   -598,  -5988,  -7706,   2198,  -1450,   -137,  -3096,  -8198,   2261,  -5498,  -5533,   4639,   1637,  -1202,   1015,  -6525,    249,  -7849,  -4776,   7573,     -8,   1317,   2166,  -7473,  -2368,  -9523,  -6274,   6453,   -381,  -2185,   1851,   -408,   1973,   1360,  -1822,   1067,   -328,    336,  -2750, -10738,  -2424,  -5555, -10598,   7277,   -750,   -427,  -2611,    542,  -2510,   1492,   2678,  -2586,    154,   1639,  -1924,   1924,   1515,   -531,   1951,    481,   1631,  -2601,  -1930,  -6681,  -2771,  -9640, -10620,  10231,  -1674,   -525,  -3111,  -2350,    521,   -256,  -3340,   6648,  -1479,  -2339,   2120,    523,   -700,   -113,  -1236,   -714,   1490,  -2893,   2638,  -4428,   -291,  -4455,  -2654,   7525,    -79,  -2344,  -1134,    783,   1883,   1634,  -2065,   -673,  -1652,  -2250,   -427,  -9418,   1965,  -5297,  -5872,   7263,    -51,  -2244,   1302,  -4667,    486,  -7379,  -6668,   5368,    564,    504,   -988,  -6411,  -1310,  -8085,  -6149,   5666,  -1865,   1967,   1034,   2243,   1306,   1679,   -546,  -2852,  -2760,   2300,  -2325,  -6699,  -1933,  -5749,  -6919,   3240,   1339,   -309,  -1305,  -5702,   2126,  -6322,  -4799,   5721,   -880,  -1770,   1407, -10255,  -1202, -10246,  -8152,   6298,  -2182,   2353,    856,  -4108,  -2451,  -4592,  -4200,   6305,   -982,  -1374,   1890,  -8087,  -1220,  -5768,  -5459,   7310,   -727,    378,  -2249,  -6750,  -2556,  -8886,  -5235,   7020,   1431,   -207,   1278,  -2311,  -2739,  -2900,   1169,   3978,    741,  -1031,  -1291,  -6910,   1458,  -6858,  -6563,  11445,    757,  -2231,  -1142,    923,   -634,   1552,    976,  -1101,    -48,  -1595,   -122,  -1001,   2627,   -906,   -668,  -1235,   1329,   1981,  -1879,  -8551,   2135,  -9888,  -7958,   9382,    376,  -3285,    107, -10794,   1145, -11489,  -5130,  10595,  -2005,   -204,   -270,    551,   -105,   2676,   1261,  -1867,  -2333,   2474,   -364,  -7068,   1690,  -8090,  -9071,   5667,  -1948,  -2083,  -1301,  -6145,     50,  -5192,  -7497,   4959,   1356,  -2664,   1780,  -7277,   -367,  -8545,  -9668,   7097,   -889,   2698,   1640,  -5594,   -958,  -8041,  -6658,   3612,   -979,  -1721,  -1515,  -3582,   2263,  -6508,  -3379,   7027,    -13,    313,   -914,    885,  -2497,  -2310,   1996,  -1540,     21,    162,  -1464,
        -13554,  -1874, -11896,  -8053,  12391,    722,   2037,  -2646,   1303,   2865,  -2861,  -1897,   -573,  -1758,   2001,  -2109,  -6921,  -3142, -10727,  -5122,   6661,   1080,   -513,    124,      9,  -2759,  -1104,   2231,  -1694,  -1922,  -2197,   -740,   2056,  -3068,    741,   1297,   2778,  -2660,   -826,   2129,  -1024,   2635,   2046,  -2653,   -635,   1476,    -48,   2347,  -4148,    390,  -7979,  -8433,   8164,    677,    463,  -1006,  -9616,  -1187, -10917,  -6085,   9187,   -731,   1341,    206,  -6632,    758,  -6986,  -7329,   9104,    107,    204,   1611,  -5824,     38,  -6250,  -7765,   3752,    630,  -2711,  -2921,  -6100,    413, -10935,  -5078,  10480,   2480,  -2720,   2329,  -9977,  -1451,  -8572,  -8034,   8605,   -963,   2029,   1509,  -2894,   -133,  -6286,  -5824,   5958,    782,   -254,   1760,    282,   2520,   2144,    855,   -885,    -81,   1893,    243,    918,   2141,   3270,   5151,    283,   1541,   1159,   2159,  -1490,  -2956,  -1916,   1451,   -557,    109,  -2454,  -1584,  -4331,   1326,   -944,   -461,   7718,  -1545,    875,  -1856,   1037,    446,   -833,  -1516,  -2457,    817,   2669,  -1183,  -7122,   -849,  -5534,  -5703,   6478,   -512,   1838,   1594,  -8762,   1624,  -5741,  -5010,   9654,    445,   -782,  -3136,  -6597,   -599,  -5958,  -6872,   4129,   -987,   1411,   1768,  -2334,  -2502,   2545,   2673,    224,    246,   1488,  -2212,  -9294,  -1556,  -9433,  -9771,  14053,   1481,    585,   1211,  -3004,  -1408,  -4756,  -3553,   9188,   -562,   1523,   -749,   7379,   -782,   6286,   5112,   1212,  -1116,   1457,  -2919,  -8404,   -631,  -7245,  -6590,   3136,    775,   2123,   1857, -11706,   1833, -10306,  -5989,  10415,   1419,   -132,   1649,  -7588,    561,  -5236,  -3721,   4199,   2004,  -2827,   2206, -10964,  -3012,  -6984, -10564,   8688,  -1557,  -1790,    364,  -5807,    501,  -5884,  -3161,   3576,  -1439,  -1362,   2243,  -2360,  -1282,   -951,   -126,   2287,  -2134,   2529,   -323,  -5522,     50,  -2582,  -5419,   2382,    921,  -2390,   1966,  -1051,   1611,   -650,    608,   2361,   1248,   2196,   -610,   1060,  -2779,   2570,  -2365,   1012,   2492,   1298,  -1375,   1683,    385,   2420,  -2619,  -2363,   2832,  -2029,   1430,   2274,  -2158,    185,   1742,  -1179,   -514,  -2199,   -917, -11261,    679,  -7674,  -9275,   8128,   1335,   -438,  -1396,  -6140,   1384,  -8553,  -9615,   8006,   1883,   -685,    226,   -880,   -780,     79,   1777,  -2533,  -2301,   -615,   -973, -12047,  -3469, -11099,  -7948,  15417,  -2681,   1791,    137,    780,  -1261,   1420,  -2232,  -1883,   2631,  -1609,   2188,  -4614,   -465,  -6987,  -5328,   9712,   -238,  -2876,  -1543,  -5519,  -2382,  -4241,  -7490,   7350,    156,     71,      6,    415,    207,   2607,   -184,   1155,   -778,  -2554,  -2395,   3470,   1666,   6029,   2550,  -1632,    358,  -3118,   -206, -10979,  -1711, -10030,  -8635,   9228,   1321,   -209,   1724,  -8904,    427,  -7576,  -9357,   1974,   -420,  -2758,  -2105,  -2603,  -1136,   1833,    922,   2515,   -125,   2519,   1398,  -5015,   1853, -10393,  -7849,   5259,   -396,  -1595,   2427, -11257,  -2648,  -9524, -10601,   9769,  -2019,  -2236,   2150,   -136,   1487,  -1975,   -504,   1461,    809,  -1632,  -1896,  -4530,    100,  -3666,  -5510,   6572,  -1572,   2163,  -1324,  -9388,   1601,  -7592,  -9924,   5530,   1265,    108,   -488,  -6992,  -2779, -10653,  -9510,  12171,   2387,  -1783,   1654,  -2120,    858,   2338,   1940,   -579,  -2714,   2871,   -394,   1180,    753,   2487,   2051,    810,    460,   1760,   2742, -10131,   1267,  -7357,  -8876,   8732,  -2088,   -814,    380, -10047,  -3036,  -6888,  -8362,   5418,    850,   -405,    764,   1348,    293,    133,    633,  -1898,    744,    817,  -1294,    133,     92,  -2856,   1881,   -771,  -2563,   1111,  -1219,  -1859,   -394,    389,   1910,    605,   2709,  -2398,   1725, -13434,  -2059, -11749,  -9568,  12834,    879,   1764,  -2237,  -8215,  -1990,  -6828,  -9918,   4330,   1384,     53,  -2044,   -143,   1556,  -1139,  -2045,   2373,   -841,   1493,  -1722,
         11412,  -2708, -11164, -10120,   3865,  12723,  10614, -10937,   9247,  -3254,  -7399,  -4769,   5869,   8797,   8791,  -5310,  10393,  -6346,  -7958,  -6693,   3149,   4394,   7975,  -8008,  -1570,   1908,  -2545,   1919,  -1914,  -1120,   2104,  -2075,  -1841,   2194,   2514,    360,  -1496,    477,     42,   1718,   7251,  -1268,  -4029,  -7055,   5534,   9027,   4661,  -6950,  12148,  -8195, -13054, -12672,  10654,  10107,   9509, -14597,  10183,  -6370,  -7676,  -7821,   6152,   6936,   9253,  -5115,  16019,  -7955, -10607,  -7984,   2914,  10130,   7761, -13565,  10349,   1086,  -8085,  -6085,    926,   9413,   4248,  -6830,   8744,  -3425,  -6683,  -5716,   2740,   5923,   3871,  -5836,  15187,  -6016, -10714,  -6803,   5228,  14370,   8659,  -5938,  10357,  -3434,  -9108,  -9669,   7037,  10429,   3890,  -8083,   -865,  -1193,  -2644,  -1457,   2760,    837,    891,   -637,   2281,  -2507,   1377,  -1780,  -1769,   -793,  -1541,   1802,  -1106,  -2368,   -721,  -1808,   2370,   -694,    355,   2737,   1309,   1723,   -271,   -398,  -1352,   2237,  -2201,    557,   2199,  -2626,   1439,   2441,      2,   2847,  -1291,   1556,  -1998,   1023,    507,    685,   -327,   1350,   1896,   2674,   -991,  -2513,   2742,    862,   1108,   1461,   -759,  -2887,   5646,  -6206,  -8435,  -7740,   4839,   5875,   5063,  -4954,   8991,  -4483,  -7526,  -6796,    -48,   5263,   6369,  -5861,   2875,  -1153,  -2382,      1,  -2309,    825,  -1524,    399,   7308,  -5026,  -9153,  -8085,   4517,   5967,   3809,  -8480,   9894,  -3655,  -9443,  -8121,   6152,   5980,   8551,  -6038,   5130,  -5211,  -5865,  -3615,   4243,   4286,   7091,  -3991,   2771,   -277,    -39,  -2013,   -516,   3071,   3250,   1324,   1414,  -2982,   2785,  -1629,   1431,  -2233,    -77,   2074,   8480,  -4502,  -6122,  -6718,   5060,   3413,   1804,  -3693,   6170,  -2334,  -4922,  -7870,   4112,   6493,   4660,  -5912,  12144,  -1937,  -5899,  -7963,   1686,  10458,   4634,  -9312,   7642,  -3824,  -3995,  -7296,   4645,   6991,   4787,  -5558,   -257,   1455,     75,    916,   2613,  -1799,   -889,    293,  10458,  -2529,  -5022,  -8419,   3186,   7231,   4144,  -9797,   2358,   2018,   2155,   -267,   -268,    436,   -144,    547,  -2403,   1971,  -2555,   2009,   1819,  -1996,   -425,   1086,  12118,  -6309, -10419,  -9006,   3902,   7938,   7031,  -8856,   3291,  -2834,    -25,  -5275,   2835,   6085,   3905,  -4719,  -2472,   1849,  -2163,  -2078,   -994,   2829,   2277,    766,   5233,  -3019,  -3602,  -3819,   3816,   6091,   7151,  -3233,  -1669,  -2369,   2170,   2122,  -1663,  -1778,    -84,  -2346,  10729,  -3908,  -6156,  -8110,   3209,   6161,   6111,  -9205,   8282,  -5178,  -7208,  -4108,   5501,   7866,   4494,  -5654,   6445,  -4437,  -7622,  -7672,   2160,   3728,   6880,  -4696,  -2555,  -2217,    390,   -867,   -992,   1607,   2369,  -1315,   5653,  -4648,  -4678,  -9033,   1028,   4677,   3762,  -6801,  10330,  -2381,  -4132,  -6126,   3995,   7400,   4641,  -8321,   9482,  -3829, -11993,  -9517,   3463,   9962,   8391,  -9286,   4675,   -843,  -3049,  -5828,   2627,   5849,   3677,  -7748,  11337,  -6470,  -9807,  -4990,   6279,   6184,   5676,  -8183,   9935,  -4789,  -4384,  -7574,   4298,  10386,   9614,  -7247,   7929,  -2281,    -81,  -1208,   2136,    995,    574,    -74,  12961,  -6250,  -6060,  -9473,   8019,  12284,   8027,  -9418,    193,   2202,   -199,  -1826,  -1018,  -1917,   2088,   1286,    615,   -366,  -1038,   -249,   -576,  -1039,   -622,   1811,  13385,  -5903,  -6181, -10296,   5550,   9463,  11314,  -7637,  11118,  -3165,  -9857, -10477,   4023,  11004,   8358,  -9007,    129,   -992,   1770,  -2615,   -413,  -1154,    166,    -49,   7349,  -3155,  -3555,  -8002,   5610,   4409,   5866,  -7542,   9699,  -4455,  -4183,  -6903,   6244,   4979,   5249,  -7224,   9820,  -4872,  -9379,  -4619,   6670,   8122,   5112,  -7350,   7781,  -1203,  -6666,  -8209,   2011,   8284,   2515,  -9206,   6957,  -3529,  -6563,  -7176,   5679,   6875,   6002,  -3891,   2631,  -2058,   -389,  -2518,  -1243,  -1369,   -826,   -165,
         12354,  -3840, -12339, -11492,   7521,   9711,   9729,  -8981,   2760,    967,  -1107,   -776,   1483,    196,   2739,    503,  10193,  -5524,  -9595,  -5649,   1858,   9244,   8177, -10012,   -524,  -1825,  -1749,   -426,   -974,   -576,  -2635,  -2699,  -2554,    985,   -392,  -1896,  -2488,  -2082,     50,   1972,   -771,   2622,  -1587,  -2704,  -1706,    910,    940,   2531,  10269,  -2391,  -7510,  -5857,   5410,   6603,   5977,  -6911,  10503,  -4978,  -8312,  -8792,   3307,  10756,   6067,  -6987,  12249,  -4156,  -9213,  -3646,   7996,  11412,  12434,  -6709,   8361,   -472,  -5475,  -7710,   1052,   5161,   5044,  -8028,  11260,  -4679,  -7207,  -7056,   5014,  11270,   5084,  -9521,  14016,  -5797,  -9431,  -9624,   8917,   7917,   6021, -10372,   6444,  -4993,  -3012,  -1709,   4511,   5736,   3100,  -3055,  -1591,  -1268,  -2216,   -905,  -1987,  -2313,   3052,   2682,   5478,    238,   1136,   1516,   2093,   1731,    631,   3285,   -773,   -633,   2083,   2762,  -1935,  -1537,  -1986,  -2291,   7529,   -503,  -1524,  -1185,   5314,   4169,   7536,  -1885,  -2308,   -425,   2104,   2869,   1985,   -677,   -959,   1767,  10170,  -4640,  -5878,  -6242,   3239,   5486,   3494,  -8752,  12906,  -3473,  -5000,  -4699,   6288,  12114,   9883,  -6295,   4373,   -258,  -5357,  -7573,   1491,   7587,   6476,  -8252,  -2677,   2065,  -1482,    908,   1144,  -2278,   1948,   2894,  11288, -10355,  -6572,  -9308,   8745,   9833,  13431,  -8276,   9837,  -1243,  -2992,  -2265,   4264,   7178,   6260,  -6160,   3237,   4672,   6506,   6303,   1273,    234,   1136,   7557,   6065,  -3629,  -4613,  -3530,   3212,   3320,   3020,  -7625,  12100,  -2823,  -9872, -10788,   3436,  10534,  11736,  -6005,   7555,   -595,  -8428,  -5057,   3737,   2742,   7016,  -3612,  14633,  -3182, -10412,  -7161,   3667,   9501,   4689, -11803,   5567,  -3314,  -1644,  -6660,   3873,   6435,   4205,  -6176,   2775,   1635,   -685,   2633,   2345,   -257,   1197,  -2241,   5465,   -227,  -3399,  -2490,   4973,   4480,   4034,  -3369,   4613,  -2166,   2901,  -1609,   3334,   5013,   3172,    281,   2526,   1505,   -652,  -1182,    -83,    651,    102,   -595,  -2807,   2433,   -618,   -657,  -2803,    237,  -2336,     95,   1474,   -549,    788,     65,  -1331,    574,  -1215,   1657,  10712,  -6415, -10698,  -6545,   8107,   7976,   9672, -10612,  12651,  -2674,  -7924,  -8084,   3358,   8588,   4182, -11168,   2498,   1446,    877,   -477,   -312,    432,  -2162,  -1467,  13529,  -8165,  -6219,  -7379,   9973,  15549,  11765, -10413,   -923,  -1088,   2357,   2462,  -2254,   1452,   1101,   2095,  11437,  -4778,  -3273,  -6053,   6439,  11965,   7757,  -2619,  11343,  -5721,  -7988,  -7178,   4298,   9045,  10474,  -6772,  -1643,   1649,  -1135,    627,  -1545,  -2311,  -2034,   -160,   -602,   3469,   4430,   3120,   2740,   2414,   1839,   5219,  13573,  -2574, -10675, -10019,   5906,   8297,  11191,  -7376,   7826,  -3071,  -8454,  -9424,   4682,   4676,   4765,  -6714,  -2353,    317,  -2579,  -1780,   1615,   2616,  -1939,   2017,  10400,  -4500,  -9491,  -6596,   7593,   7415,   5362,  -7630,  10678,  -5511, -10654, -11906,   4108,   9754,   5235,  -9584,   2766,  -2549,  -1924,    619,   2174,   1877,   -623,  -1709,   6709,  -4131,  -1902,  -6481,   4152,   7594,   4266,  -6255,   8454,  -3097,  -9382,  -8516,   3183,   8358,   6967,  -8709,  13632,  -3157,  -5818,  -5842,   9595,  12621,  11076,  -8142,  -2201,   1768,   2122,   1335,  -1651,  -1415,    628,   1352,   -389,  -2305,  -1020,    855,  -1140,  -1334,  -1781,   2175,  13433,  -7706, -10209,  -9629,   4740,   9952,   9661,  -7206,   8110,  -1549,  -9117,  -4954,   4345,   9266,   6259,  -7403,  -1390,    403,    410,   1794,   1149,    440,  -1573,  -2574,  -2247,   -885,   -917,   -350,  -1192,   -657,    768,    362,   2796,  -1805,   2211,   1648,   1741,  -2251,  -1696,   2645,  13846,  -7632, -10500,  -9476,   8606,  13504,  12681,  -9772,   6626,  -6738,  -6708,  -9871,   6815,   7762,   4542,  -8575,    729,   2579,     64,  -2216,   1025,  -1507,    494,   2315,
         -3356,    878, -10972,   8826,  -1135,    969,  -4201,  10146,  -1776,   2318,  -5806,   6619,  -2442,   -106,  -2278,   5926,  -2778,  -2453,  -9668,   3298,  -1934,  -2528,  -2479,   2436,   -180,  -1935,  -1927,  -1140,  -1034,    -33,  -2068,   1623,    968,   -334,   2817,   -821,   1821,  -1890,   1693,   2077,  -4772,  -2743,  -7064,   4490,   1093,  -2720,  -2901,   6076,  -9000,   -565, -10767,   8559,   2292,   1200, -10927,  11763,  -1637,   1689,  -5398,   4209,  -2632,   -338,  -5812,   5716,  -8331,   1606, -11969,   4445,  -2033,    769,  -7829,   6241,   1581,  -1915,  -7900,    104,    661,     18,   -375,     14,  -2910,    960,  -4238,   5208,  -3048,   -504,  -7579,   1125,  -1427,    944,  -9175,   8517,   1609,   1064,  -4336,   9689,  -5306,   -545,  -7429,   3087,   2211,   2243,  -6687,   4711,    951,    868,  -1704,   -862,   1335,    407,   -927,  -2087,   -794,  -1619,  -1805,   2322,   2402,  -1915,  -2860,  -1030,  -2677,    824,   -610,  -2737,   2870,    438,    586,      4,  -1243,   -491,    190,   -954,    902,   1896,  -1211,   -330,   1427,    420,   2338,    754,   2267,   1757,   1322,  -1801,    -34,   -362,   1909,   -141,   -601,   2403,   -591,   -874,   -392,    585,    506,   -874,   2345,   1428,    652,    305,  -1506,   1156,  -7259,   6788,  -1003,    394,  -6459,   6505,  -1693,    979,  -7333,   1434,  -2592,  -3015,  -6077,   5257,   1293,    -89,  -1557,  -2368,  -1959,    -73,  -2394,  -1996,  -1838,   2187,  -9683,   1514,   1081,  -1859,  -6400,   4233,  -1127,  -3048,  -9150,   8365,    474,  -2610,  -3398,   5766,     -2,   2055,  -2454,   2839,  -1430,  -2013,  -4950,   1164,    340,  -1107,  -3000,  -1746,   1377,  -1886,   1132,  -2458,    842,   2075,   1653,   1401,   1291,  -2638,  -1421,   2256,    846,    196,  -5936,    287,   1051,   -775,  -3934,   4931,  -1463,    598,  -9505,   4669,    349,   2424,  -2485,   3603,  -4949,    -35, -10554,   7480,   -871,  -1337,  -4002,   6747,  -6268,   1370,  -7713,   4588,   1406,   -634,  -3955,   3525,  -1357,  -1266,    103,   1840,  -1230,   1377,   1778,    454,  -3422,  -1464,  -7161,   4484,  -2520,    953,  -3425,   4756,   2610,   -923,   2593,  -1489,   -373,  -1142,    505,   2595,    371,   1719,  -1180,  -2169,    164,  -1663,   1185,    346,  -1615,   -840,  -8799,   4036,  -2930,   1355,  -3779,   5880,  -1507,     52,  -2835,    833,  -3095,   2424,   -562,   2908,  -1814,   -478,   1947,   -368,  -1178,   2748,    289,  -1542,  -1558,    565,  -2590,   3836,  -3007,    294,  -4355,   3384,   1482,     16,   1834,   2572,    109,   -948,  -1560,    503,  -3980,    589,  -5720,   3174,   2100,    771,  -6960,   2453,  -3431,  -2322,  -3626,   5376,  -1901,   1675,  -6604,   3159,  -6436,    773,  -7685,   3018,   -724,   -553,  -2858,   4617,    618,   1383,  -2552,    275,  -2337,    164,  -2341,  -1391,  -1903,   1165,  -7136,   5244,    569,    174,  -5356,   5585,   -765,   1057,  -8481,   5648,   1383,   1607,  -1896,   4246,  -7118,   2270,  -7493,   3618,   1790,   -761,  -4090,   4552,  -4090,  -3097,  -2831,   2397,   -114,    257,  -2155,   6281,  -3032,    424,  -7052,   7431,   1147,    992,  -5702,   3045,  -4370,  -1460,  -7691,   6626,    535,  -1680,  -4716,   4774,  -3021,   -505,  -1380,   4579,   1674,    -87,  -3197,    296,  -5022,    760,  -8509,   9493,   2252,   2322,  -8189,   6480,   2855,   1982,   2084,  -1774,   2371,   -104,    916,    -43,   2383,   2506,   1183,    997,   1619,   1416,    376,    104,  -5004,   1110, -10945,   6785,   -302,  -2439,  -3137,   7603,  -4777,  -2943, -11498,   7973,  -2812,    404,  -3708,   5249,     77,    183,  -1365,   2521,   2223,   -123,  -1687,  -2886,  -4921,    474,  -7232,   4839,   1930,  -2552,  -5477,   2469,  -5208,  -1319,  -7670,   2601,  -1068,  -2238,  -4289,   6914,  -3466,  -2023,  -8881,   6038,  -3271,   2490,  -5555,   4917,  -2331,  -1344,  -7015,   4265,   1456,   2078,  -4039,   4819,  -4681,   -462,  -3248,   5974,  -2948,    756,  -3711,   5426,  -2816,  -1189,   1972,  -2609,  -2061,   1130,   1091,   1237,
         -4274,   1305,  -9841,   5440,  -2078,    920,  -6338,   6724,   -221,    427,   -844,   1494,   -964,   -471,   1871,   2477,  -3275,  -1909,  -9118,   7488,   -624,  -2910,  -5711,   6983,    754,  -2322,   -144,  -2838,  -1955,    770,  -1086,  -2231,   1275,   -649,  -2227,   1170,  -2701,  -1466,  -2346,   -991,   1295,   2250,  -1047,   -603,   -221,  -2825,   2172,     54,  -4283,  -2775,  -7495,   1468,    597,    323,  -6855,   2743,  -1781,   1630, -11767,   6553,  -1372,    780,  -6157,   3582,  -4913,  -2408,  -6997,   8672,   1879,   -342,  -4582,   7063,  -2630,  -3446,  -8242,   2210,   1172,    -12,  -2596,   6063,  -5470,   1525,  -6548,   7205,   1219,  -1489,  -5004,   5754,  -1659,   1348,  -8899,   7401,   1436,   2612,  -5366,   9895,  -1578,  -1833,  -2675,   4713,   -869,  -2698,  -6031,   5209,    530,   -875,  -2534,  -1243,   -631,   2327,  -2920,    168,   -865,  -3022,   3062,   2364,    851,   1648,    485,   3335,   2629,   1270,   1904,   1811,   1548,  -2166,  -1248,   2698,  -4784,    331,  -5618,   6229,    194,  -2894,  -6443,   3581,   -977,  -1611,   1845,   2861,  -2305,  -1707,  -1866,  -1153,  -4272,   -479,  -6045,   5288,    602,    830,  -2955,   4395,   -585,   -741,  -9891,   3087,   1273,   1242,  -5327,   6116,  -4824,   -416,  -2665,   2751,   2467,    317,  -1194,   5231,   2852,  -1843,   -735,  -2274,  -2843,   1199,  -1095,   -824,  -7006,    424,  -8486,  11378,  -3116,   2640,  -5973,   9344,  -3605,    575,  -5529,   6732,   -248,   1674,  -6090,   9128,   5697,  -2478,   7990,   2493,   -722,  -2570,   5988,   2453,  -5493,  -1804,  -7054,   5316,  -1796,   1862,  -4794,    986,  -3520,    -92, -11089,   5245,   1293,   2688,  -7079,   5034,  -2880,  -3259,  -7863,   3365,  -2398,   -458,  -2370,   3451,  -3302,   2078, -12153,   1679,  -1997,  -2721,  -4430,   3985,  -1038,   1284,  -6515,    -69,   1558,   1723,  -1214,   2900,  -2547,    950,  -1052,   1674,  -2149,  -2057,  -2345,   1720,   -724,   -805,  -1662,   3694,    672,    246,  -1664,   2220,    453,   1676,   -941,   4639,  -1327,  -1366,  -2090,   -360,   -166,  -2597,   1465,  -2356,   1204,   1063,    771,  -1661,   2434,   2443,    868,  -1935,   1859,   -122,   1733,    419,  -2072,  -1799,  -2179,  -2651,   1103,   -427,  -1574,   -158,  -6460,    -31,  -6112,   5275,   1255,  -1336,  -2984,   4356,  -2930,   2053,  -8443,   4734,  -1832,   2079,  -3368,   6154,    771,  -1975,   2700,    214,    765,   -652,  -2428,   2231,  -9210,  -1833, -12126,  12430,  -1057,    398, -10247,   9216,   1454,   -950,   2793,  -2824,   2442,   -125,  -2715,  -2682,    652,   1047,  -2203,  10220,   2248,  -1302,  -1569,  11306,   -888,  -2007,  -7233,   4886,   -546,  -2342,  -3870,   5182,   -963,   -627,  -2045,    813,  -1371,   -255,   -952,    850,    969,  -2150,   1192,    348,   -188,  -2128,   3707,   1376,  -1501,   1943, -10085,   8502,    827,   1982,  -4338,   5675,  -3935,  -2784,  -6861,   4165,   1363,    532,  -4658,    171,    111,  -1271,  -2729,  -1508,   2568,  -2817,  -1731,  -1289,  -5659,   1878,  -9231,   7283,  -2113,   -310,  -7738,   5961,  -5359,   1671, -11609,   6418,    179,  -1191,  -6123,   6678,    813,    -50,   1636,   2333,    447,    185,    530,   -400,  -3035,    -72,  -3779,   3660,    716,  -1700,  -3601,   2228,  -4600,   1293,  -5994,   5165,   2564,  -1242,  -3927,   7683,  -5309,  -2348,  -5558,   7528,   -747,  -1352,  -9424,   8241,   1890,  -2549,  -1500,   1353,    512,   1981,  -2681,    267,   2721,    160,  -1948,    915,  -1621,  -2688,     71,  -1511,  -3608,     80,  -7777,   7811,    -55,   2245,  -8792,   8636,  -5646,   1325, -10124,   2109,  -1590,    507,  -6219,   7073,   -434,    837,   1109,   1892,  -2418,   2443,    249,  -1936,   2285,   -376,  -1435,   2507,   2234,    282,  -1992,   -887,   -443,   1526,  -1059,    -68,   -870,  -1393,   -239,  -2118,  -7837,   1907, -10054,  10760,  -1340,   1693,  -6339,  10595,  -4537,   -542,  -5610,   5906,  -1586,   -755,  -7746,   5154,   -989,    467,  -2578,  -2448,   2859,  -1355,  -2599,   1658};

    const static Filter<int16_t> fused_gemm_1_filter(fused_gemm_1_filter_element, -14, {1, 1, 128, 64}, {1, 1});
    const Filter<int16_t> *get_fused_gemm_1_filter()
    {
    	return &fused_gemm_1_filter;
    }

    const static __attribute__((aligned(16))) int16_t fused_gemm_1_bias_element[] = {
           -42,    161,   -216,    601,   -288,    633,   -233,    -17,   -222,   -207,   -184,    -14,    -14,   -164,   -241,   -193,    542,    -15,   -180,    -17,    577,    579,   -173,    -25,      0,    -18,    605,   -241,    -13,    621,    573,    614,   -182,    -15,   -205,    -14,    -16,    -16,   -272,   -212,    592,    -32,    564,    527,   -239,    -25,    -26,    -24,   -289,    253,    540,    587,   -181,   -255,   -233,    535,    221,    -33,    586,   -192,    -20,    -12,    281,   -203};

    const static Bias<int16_t> fused_gemm_1_bias(fused_gemm_1_bias_element, -10, {64,});
    const Bias<int16_t> *get_fused_gemm_1_bias()
    {
    	return &fused_gemm_1_bias;
    }

    const static Activation<int16_t> fused_gemm_1_activation(ReLU);
    const Activation<int16_t> *get_fused_gemm_1_activation()
    {
    	return &fused_gemm_1_activation;
    }

    const static __attribute__((aligned(16))) int16_t fused_gemm_2_filter_element[] = {
         -2930,  -6696,   4830, -23116,  13873, -28727,   9928,  -3654,  10901,   8230,   7940,  -2861,   2207,   7862,   8357,   7654, -27262,   2054,   9472,   3735, -24221, -27813,   7395,   1593,   -830,   -297, -20406,   4334,   2203, -20450, -21999, -28649,   6624,   1821,   9126,  -2247,   3643,   4473,   7829,  13614, -23187,   3247, -20855, -28343,  12656,    -42,   2349,  -1018,   9816, -22434, -28056, -23506,   9133,  12609,  11209, -24609, -16981,     80, -28237,   8970,   1360,   1800, -16762,   4699,   3160,  13056, -12137,  29547, -12202,  21682,  -5613,  -3122,  -8392,  -5921, -10569,  -2254,    -76, -10363,  -6147, -10080,  25285,  -3959,  -9533,  -2739,  23797,  21241,  -9311,   3855,   4432,   -365,  27160, -10729,   4471,  28072,  21098,  21685,  -9801,   3657,  -6515,  -1080,  -2698,   3207, -13457,  -8858,  25924,   3371,  27116,  26903,  -6209,    383,  -3158,   3128, -11316,  20776,  24889,  28030,  -7671,  -4712,  -5250,  25641,  14974,   3601,  20704,  -8069,   2101,   1472,  21498, -10404};

    const static Filter<int16_t> fused_gemm_2_filter(fused_gemm_2_filter_element, -14, {1, 1, 64, 2}, {1, 1});
    const Filter<int16_t> *get_fused_gemm_2_filter()
    {
    	return &fused_gemm_2_filter;
    }

    const static __attribute__((aligned(16))) int16_t fused_gemm_2_bias_element[] = {
           -21,     18};

    const static Bias<int16_t> fused_gemm_2_bias(fused_gemm_2_bias_element, -7, {2,});
    const Bias<int16_t> *get_fused_gemm_2_bias()
    {
    	return &fused_gemm_2_bias;
    }

}
